{"bias": -3.1497195075570037, "nFeatures": 8192, "weights": [-0.8298721313476562, -0.06137363985180855, -0.005129861645400524, 0.413059264421463, 0.0, 0.0, 0.047865260392427444, -0.13397064805030823, 0.536144495010376, 0.6518067717552185, 0.24812889099121094, 0.028596071526408195, -0.026733744889497757, -0.005096006207168102, 0.0, -0.015474318526685238, -0.013815711252391338, 0.0, -0.3401658833026886, 0.0, -0.31896695494651794, 0.1527247279882431, 0.0, 0.09496795386075974, -0.0018002282595261931, 0.2729394733905792, 0.0, 0.0, -0.00599416671320796, 0.0, 0.09084784984588623, 0.2533588111400604, 0.0, 0.0, -0.07382979989051819, 0.0678945779800415, -0.001077101449482143, 0.27922502160072327, 0.01537489052861929, 0.0, 0.0, -0.017074132338166237, 0.11243734508752823, -0.12468039244413376, -0.10329879820346832, -0.02974768541753292, 0.0, -0.11839060485363007, 0.048427075147628784, 0.0, 0.0, -0.03637031465768814, -0.0981295108795166, -0.0002612826065160334, 0.0, 0.04245772957801819, 0.07314533740282059, -0.020393332466483116, -0.003999100532382727, -0.015365149825811386, -0.027767660096287727, 0.0, -0.0022415299899876118, 0.012346123345196247, 0.0, -0.03540492057800293, -0.0008301981724798679, 0.015479917638003826, -0.01374723669141531, 0.0, 0.0, 0.04387080296874046, -0.004425265360623598, 0.0, -0.003203912638127804, 0.0, -0.01007299404591322, -0.03043382242321968, -0.09573528170585632, 0.0, 0.0, 0.0, 0.0, 0.0, 0.0, -0.06691107898950577, 0.11373548954725266, 0.0, 0.0, 0.0, -0.1681879162788391, 0.0, 0.0, 0.24723874032497406, -0.002349147805944085, 1.3210848569869995, -0.022413840517401695, 0.0435834601521492, 0.0, 0.0, 0.0, -0.04806309938430786, 0.0, -0.04685936123132706, 0.0, 0.11824162304401398, 0.0, 0.03513050824403763, -0.035281017422676086, -0.05743084475398064, -0.06902246177196503, 0.0, 0.3599607050418854, -0.006364118307828903, 0.0, 0.0, 0.25652334094047546, 3.2240149974823, -0.011920971795916557, 0.0, -0.16651439666748047, -0.025402214378118515, 0.0, -0.061890602111816406, 0.0, -0.1674775928258896, 0.0, -0.24048973619937897, 0.38705381751060486, 0.0, 0.0, -0.17964033782482147, -0.025570111349225044, -0.2125735729932785, 0.061713702976703644, -0.019926322624087334, -0.014108244329690933, 0.0, 0.0, 0.02583214081823826, 0.0, 0.5370328426361084, 0.243033304810524, 0.7539080381393433, 0.5554916858673096, -0.012924698181450367, 0.0, 0.0, 0.8695684671401978, -0.1488547921180725, -0.04032810032367706, 0.45623961091041565, 0.0, 0.0, -0.013755314983427525, 0.0, -0.06586447358131409, 0.0, -0.06909015774726868, 0.0, 2.274296283721924, -0.015170305036008358, -0.002192725660279393, 0.0, 0.243033304810524, -0.052928585559129715, -0.0185550469905138, -0.0122707923874259, -0.03518952429294586, 0.1261993944644928, 0.0, 0.0, 0.0, -0.006157335825264454, 0.0, 0.0, 0.0, -0.02172946371138096, 0.0, 0.0, 0.05979832634329796, 0.0, -0.0012735715135931969, -0.003456888720393181, 0.0, 0.0, 0.0, 0.0, -0.013356439769268036, 0.0, -0.017687007784843445, 0.0, -0.11355583369731903, 0.0, -0.05517595633864403, 0.0, 0.0, 0.0, 0.0, 0.0, -0.012751123867928982, -0.5201610326766968, -0.09092579036951065, -0.046632736921310425, 0.040411196649074554, -0.05584738776087761, 0.0, 0.020387614145874977, 0.8610146045684814, 0.09918361902236938, 0.45093220472335815, -0.13271430134773254, 0.09791772067546844, 0.05263952165842056, -0.041041627526283264, -0.027843931689858437, -0.006818182300776243, -0.28896158933639526, 0.0, 0.0, 0.45760011672973633, -0.15659445524215698, -0.19006171822547913, 0.0, 0.1546972692012787, 0.032970741391181946, 0.0, -0.029495669528841972, -0.09397796541452408, 0.0, 0.1921350359916687, 0.0, 0.017253316938877106, 0.0, 0.0, -0.08790445327758789, -0.031397268176078796, 0.0, 0.0, 0.0, -0.2034512460231781, 0.0, -0.19393888115882874, -0.07015116512775421, -0.2827180325984955, 0.0, -0.0026561408303678036, -0.006538005545735359, 0.0, 0.0, -0.0445675291121006, 0.0, -0.005843059159815311, 0.14354777336120605, 0.06896564364433289, 0.0, 0.2435014694929123, -0.014057020656764507, -0.009437305852770805, -0.08974175900220871, 0.0, 0.03273871913552284, 0.0, -0.004254416096955538, 0.0, -0.0124089065939188, -0.023535113781690598, -0.0033909506164491177, 0.0, 0.2501435875892639, -0.026422850787639618, 0.0, -0.007561560720205307, 0.15013766288757324, -0.0183879267424345, -0.01877245493233204, 0.0, -0.0033629299141466618, -0.0021000506822019815, -0.060537826269865036, -0.01030674111098051, -0.02717452682554722, 0.0, 0.9056264758110046, 0.0, 0.0, 0.0, 0.0887291207909584, -0.028026357293128967, -0.01031118631362915, -0.01364497747272253, -0.006157335825264454, -0.1048143059015274, -0.016909241676330566, 0.0, -0.021795332431793213, 0.40602046251296997, -0.11155282706022263, 0.15701939165592194, 0.02387963980436325, -0.0033094538375735283, 0.0, -0.002791331149637699, 1.844445824623108, 0.0, 0.0, -0.11413495242595673, -0.07557361572980881, -0.0013193609192967415, -0.12236236780881882, -0.008756990544497967, -0.4239846169948578, 0.0, -0.14387959241867065, 0.2539042830467224, -0.004491975996643305, 0.0, 0.0, 0.04219266399741173, 0.0, -0.0006288266158662736, 0.07337082177400589, 0.0397690087556839, 0.041423022747039795, 0.31776371598243713, 0.0, 0.0, 0.21227119863033295, 0.0, 0.09662654995918274, -0.2566320300102234, 0.0, 0.0, 0.0, -0.0017327291425317526, 0.38381627202033997, -0.011223246343433857, 0.0, 0.0, 0.0, 0.32783710956573486, 0.0, 0.2729802429676056, 0.0, 0.027014166116714478, -0.0077100167982280254, -0.05164671689271927, -0.008397090248763561, -0.0012340587563812733, 0.0, 0.047763362526893616, -0.049174822866916656, 0.0, 0.0, -0.018189938738942146, 0.0, -0.06123676523566246, -0.010263939388096333, 0.21074050664901733, 0.0, 0.0, -0.026234610006213188, -0.005943662021309137, -0.0019476099405437708, 0.0, 0.4587414860725403, 0.0, 0.0, 0.13579021394252777, -0.08516321331262589, -0.007936080917716026, 0.0, 0.0, 0.0, 0.1196037232875824, -0.010263939388096333, 0.08317520469427109, -0.04550933837890625, 0.756061851978302, 0.0, -0.030715011060237885, 0.0, 0.0, 0.0, -0.06970096379518509, 0.0, 0.12983141839504242, -0.007927496917545795, -0.04421762004494667, 0.0, 0.06570371240377426, 0.6902401447296143, -0.10656856000423431, 0.23919110000133514, 0.0, -0.06558001786470413, -0.009162364527583122, -0.06923257559537888, -0.006245343014597893, -0.025445356965065002, -0.0012917481362819672, -0.09178540110588074, -0.09312071651220322, -0.08788413554430008, -0.041308533400297165, 0.0, 0.0, 0.010108786635100842, -0.015978800132870674, 0.0, -0.0026107807643711567, 0.0, -0.11854837089776993, 0.0, -0.02796781435608864, 0.06958910822868347, 0.025625307112932205, 0.0, 0.6113664507865906, 0.0, 0.0, -0.0007736730040051043, 0.0, -0.15053825080394745, 0.0, 0.47185203433036804, 0.0, 0.0, 3.4212279319763184, -0.1198558434844017, -0.024699022993445396, 0.0, -0.1965131163597107, -0.03376930207014084, 0.0, -0.03357696533203125, -0.06421340256929398, -0.018461085855960846, -0.002269531600177288, -0.003099307883530855, 0.3621889352798462, 0.032489217817783356, -0.12342140078544617, 0.0, 0.03588155657052994, -0.4186961054801941, -0.009772306308150291, 0.006856438238173723, 0.2833256721496582, 0.0, 0.3577580451965332, 0.18174226582050323, -0.10198333859443665, -0.049009453505277634, -0.0656578317284584, -0.03245273604989052, -0.3563189208507538, -0.0032880224753171206, 0.0, -0.026045585051178932, 0.0, 0.4619576930999756, -0.08422008156776428, -0.13925422728061676, 0.0, -0.010363257490098476, 0.6070636510848999, 0.0, 0.08096886426210403, 0.0, 0.0, -0.012555831111967564, -0.2621355652809143, -0.0007190598989836872, -0.09531153738498688, 0.14259693026542664, 0.0, 0.004676243290305138, -0.05252089351415634, -0.0028514990117400885, 0.3064800202846527, 0.0937647745013237, 0.0, -0.013860038481652737, -0.001102052046917379, 0.0, 0.0, 0.025625307112932205, -0.0542035773396492, 0.0, 0.0, 0.0, -0.1294587403535843, 0.0, 0.0, 0.15353275835514069, -0.024699022993445396, -0.00990989152342081, -1.2821462154388428, 0.0, 0.0, -0.02532115764915943, 0.0, -0.7345444560050964, 0.0, 0.0, 0.0, 0.0, -0.9324496388435364, -0.10222313553094864, -0.04743260517716408, 0.0, 0.0, -0.029981790110468864, 0.0, 0.0, 0.14470618963241577, 0.2796744406223297, 0.0, -0.3874858021736145, 0.032764606177806854, 0.11510790139436722, -0.15574230253696442, 0.0, -0.004242721013724804, 0.0, 0.0, 0.0, -0.19710855185985565, -0.0010229024337604642, 0.0, 0.0, -0.24999237060546875, 0.0, -0.2358177900314331, 0.0, -0.3991403579711914, 0.0, 0.015987373888492584, 0.0, -0.02875194326043129, -0.09178540110588074, 0.0, 0.0, 0.0, -0.022606564685702324, -0.020366264507174492, 0.0, 0.0, -0.036064762622117996, 0.020206935703754425, 0.0, -0.020503399893641472, -0.025206226855516434, 1.170116901397705, 0.0, 0.0, 0.0, -0.10240400582551956, -0.03679566830396652, -0.6617118120193481, 0.0, 0.0, -0.0016690777847543359, -0.022001447156071663, 0.022782325744628906, 0.0, 0.0, 0.45315372943878174, 0.0, 0.0, 0.1339559555053711, -0.12722305953502655, 0.17697001993656158, 0.19339604675769806, 0.0, 0.09687627851963043, -0.1321668177843094, 0.037272196263074875, -0.21786512434482574, -0.015200752764940262, 0.12014912068843842, 1.361855387687683, 0.0, -0.01568550616502762, -0.00550542026758194, 0.1735619753599167, -0.003734676167368889, 0.0, -0.011962119489908218, -0.029845602810382843, 0.0, -0.005990948528051376, 0.0, 0.0, 0.11128436028957367, 0.0, 0.0, 0.01949227787554264, 0.0, -0.03190109506249428, 0.0, 0.0, 0.004307068418711424, 0.4181688129901886, 1.1946213245391846, 0.0, -0.09290093183517456, -0.0026814951561391354, 0.0, 0.0, 2.0434160232543945, -0.025365356355905533, 0.028596071526408195, 0.0, -0.0525016225874424, -0.13631309568881989, 0.0, 0.5431506633758545, -0.03072492778301239, 0.05869194120168686, 0.0, 0.17996306717395782, 0.01880713179707527, -0.002240575850009918, 0.22688636183738708, -0.0190763920545578, 0.0, -0.01235754694789648, -0.00019404217891860753, 0.1236058846116066, -0.11869952082633972, -0.12584799528121948, 0.0, 0.0, -0.0203481987118721, 0.0, 0.01280455943197012, 0.0, 0.0, 1.446305274963379, -0.0062139444053173065, -0.014257471077144146, -0.008346823044121265, 0.0, 0.0824521854519844, 0.047763362526893616, 0.5482432842254639, 0.0, 0.03080306388437748, 0.0, 0.0, 0.0, -0.003553357906639576, -1.2810331583023071, 0.0, 0.3105018734931946, -0.03409731760621071, -0.0444645881652832, 0.014574678614735603, -0.19755366444587708, -0.2611566185951233, 0.0, 0.14450229704380035, 0.0, 0.0, -0.04427563026547432, 0.03169434517621994, -0.2673390507698059, -0.02308136224746704, 0.0, 0.0, 0.0842466950416565, -0.0903729796409607, 0.0, 0.06782969832420349, 0.0, 0.0, 0.5358806848526001, 0.08891087770462036, 0.0, 0.1720006763935089, 0.0, -0.004828250035643578, 0.0, 0.0, -0.11100450903177261, 0.11404568701982498, 1.6616789102554321, 0.0, 0.32218989729881287, 0.0, -0.012473603710532188, 0.0, 1.115559697151184, 0.5136244297027588, 0.11459788680076599, -0.03168603032827377, 0.008053724654018879, 0.0, 0.0, -0.016825243830680847, -0.12498663365840912, 0.0, -0.05911923944950104, -0.06930845230817795, 0.0, -0.08006347715854645, 0.0, -0.026108333840966225, -0.007809891365468502, 0.13579021394252777, -0.002419867552816868, 0.017152871936559677, 0.0, 0.16205963492393494, 0.0, -0.04268728941679001, 0.0, -0.019628476351499557, -0.00679211039096117, 0.0, 0.0, 0.0, 0.0, 0.0, -0.0746440440416336, 0.0, -0.006326795555651188, 0.0, 0.0, -0.18357180058956146, 0.035035036504268646, 0.0, 0.0, -0.7664090991020203, -0.031493011862039566, -0.10914617031812668, -0.03249725326895714, -0.17034552991390228, 0.16476191580295563, 0.0, -0.161100834608078, 0.0, 0.0, -8.05836680228822e-05, 0.0, -0.08804693073034286, -0.03565395250916481, -0.02401750534772873, -0.011073012836277485, -0.026251208037137985, -0.0015097212744876742, -0.005736527964472771, -0.0016451174160465598, 0.0, 0.0, 0.0, 0.11264830082654953, -0.07501564919948578, 0.0, -0.02198069356381893, 0.0, -0.014714245684444904, -0.0018678584601730108, 0.03753792494535446, -0.026024889200925827, -0.043479349464178085, 0.5182093977928162, -0.4992317259311676, -0.03689396753907204, -0.11911068111658096, -0.01042486447840929, 0.19838376343250275, 0.0, -0.003833000548183918, -0.003301379270851612, 0.2576441168785095, 0.0, -0.0114433653652668, -0.0026623911689966917, 0.0, -0.022941449657082558, -0.04843185469508171, 0.0, 0.09624524414539337, -0.030800065025687218, -0.10597655177116394, 0.0, -0.015302232466638088, -0.053660936653614044, 0.0, -0.05421142652630806, 0.4804505407810211, 0.6646521687507629, 0.29439643025398254, -0.0138885248452425, 0.0, 0.0, -0.046744994819164276, 0.0, -0.7927252054214478, -0.009848971851170063, 0.24150744080543518, 0.04671121761202812, 0.0, 0.08338774740695953, 0.25076836347579956, -0.00044655526289716363, -0.10015976428985596, 0.0, 0.05919334664940834, 0.4171476364135742, 0.23737911880016327, 0.7731255292892456, -0.01470276527106762, 0.0, 0.0, 0.08098731935024261, 0.0, 0.0, 0.043861273676157, 0.12854690849781036, 0.4473511576652527, 0.0, 0.0, 0.0, -0.001808502129279077, 0.0, 0.015093769878149033, -0.0026644044555723667, 0.0, 0.10714948177337646, 0.0, 0.0, 0.0, -0.0484641008079052, 0.0, -0.145433709025383, 0.0, 0.0, 0.0, -0.016208931803703308, -0.014846625737845898, 0.0, 0.0, 0.4338472783565521, 0.0, -0.008314764127135277, -0.01302671991288662, 0.0, 0.0, -0.015254655852913857, -0.03367028757929802, -0.0042256382293999195, 0.0, 0.0, 0.0, 0.0, 0.16847090423107147, 0.0, 0.0, 0.0, -0.1716664880514145, -0.00047026018728502095, -0.0276067815721035, -0.14394067227840424, 0.0, 0.0, -0.004636965226382017, 0.0, -0.06950755417346954, -0.08963154256343842, 0.0, -0.07342881709337234, 0.0, 0.0, 0.060188256204128265, 0.2726079821586609, 1.5819802284240723, 0.0, 0.3717922270298004, 0.0, 0.0, 0.0, -0.02468125894665718, 0.00460153678432107, 0.0, -0.05290433391928673, -0.042947158217430115, 0.0, 0.0, 0.0, -0.017572201788425446, 0.0, -0.006036273203790188, 0.0, 0.0, 0.3154638707637787, -0.002048255642876029, -0.00385194830596447, -0.00019597605569288135, 0.07196537405252457, -0.04633074626326561, -0.020651355385780334, -0.01688811182975769, -0.026768798008561134, 0.0, 0.0, 0.0, 0.0, -0.040777117013931274, 2.261500597000122, 0.02260400727391243, -0.0016451174160465598, -0.025331193581223488, 0.0, -0.07327419519424438, 0.019562220200896263, -0.08258108794689178, 0.0, 0.0, -0.14587534964084625, 0.0, 0.005979144014418125, -0.00491014588624239, -0.009775806218385696, -0.022400323301553726, 0.0, -0.36266419291496277, 0.08495189994573593, 0.0, -0.03961043804883957, 0.0, -0.07800529897212982, 0.0, 0.0, 0.0, -0.8671214580535889, 0.0, 0.0012893350794911385, 0.0, -0.027408290654420853, 0.0, 0.3339581787586212, 0.0, 0.17583483457565308, 0.0, 0.5168485045433044, -0.06418947130441666, -1.5064470767974854, 0.0, 0.0, -0.030281556770205498, -0.0026107807643711567, -0.009060760028660297, -0.12063324451446533, -0.003934807609766722, -0.11586783826351166, -0.03085738979279995, 0.0, 0.22554661333560944, 1.5156681537628174, -0.05246451869606972, -0.0030186008661985397, 0.14731188118457794, -0.06790879368782043, -0.027288096025586128, -0.07471736520528793, 0.0, 0.3610174059867859, 0.0, 0.0, -0.0391441248357296, 0.3339603543281555, -0.016674192622303963, -0.007811936549842358, 0.0, 0.490943968296051, 0.0, 0.07150086760520935, 0.0, 0.36836037039756775, 0.0, -0.01470276527106762, 0.15353275835514069, 0.09372912347316742, 0.15697601437568665, 0.2754528820514679, -0.19919005036354065, -0.0028002536855638027, -0.01881195232272148, 0.059918615967035294, 0.0, 0.0, 0.0, 0.11881687492132187, -0.0028326541651040316, 0.8300126791000366, 0.0, 0.0, 0.0, 0.032163169234991074, 0.0, 0.0, -0.007843644358217716, 0.0, 0.17943961918354034, 0.0, -0.025440501049160957, 0.0, 0.0, -0.07153444737195969, 0.0, -0.15180429816246033, -0.04802455008029938, 0.09346722066402435, 0.25076836347579956, 1.2796403169631958, 1.4507174491882324, 0.0, 0.0, 0.0, 0.0, 0.03080306388437748, 0.0, 0.17054805159568787, 0.0, -0.013186427764594555, -0.009839669801294804, -0.04432155191898346, 2.382626533508301, 0.0, 0.9452419877052307, -0.01881195232272148, -0.01327389944344759, 0.0, -0.27243855595588684, 0.14176690578460693, -0.31668928265571594, -1.3186501264572144, -0.025461021810770035, 0.0402807891368866, -0.06887636333703995, 0.18441222608089447, 0.0, 0.0, -0.02920226752758026, 0.2925151586532593, 0.0, 0.0, 0.0, 0.0, -0.2460600733757019, -0.005943662021309137, 0.0, 0.0, -0.2425386607646942, 0.16969764232635498, 0.0, 0.10138018429279327, -0.005917339585721493, 0.0, 0.0, 0.007724375929683447, -0.4669959843158722, -0.0014102280838415027, 0.009577097371220589, -0.012563582509756088, 0.0, -0.01832803338766098, 0.0, 0.0, -0.004925754386931658, -0.14092187583446503, -0.10711968690156937, 0.0, 0.0, 0.0, 0.015584450215101242, -0.04224194586277008, -0.0026644044555723667, 0.0, -0.010847107507288456, 0.0, 0.0, -0.128961980342865, 0.0, 0.20686572790145874, 0.0, -0.02545975148677826, -0.13207940757274628, 0.0, 0.495932400226593, -0.012887220829725266, 0.0, -0.002418940421193838, 0.22265173494815826, -0.00196273741312325, -0.008016119711101055, -0.009096710942685604, 0.094527967274189, 0.620913565158844, -0.26733341813087463, -0.03274727612733841, 0.0, 0.0, 0.6807689666748047, 0.30983346700668335, 0.0, -0.07394080609083176, -0.001453258330002427, 0.0, 0.0, 0.0, -0.08882865309715271, 0.0, -0.19573910534381866, -0.09369520843029022, -0.012369287200272083, 0.0, -0.006669326219707727, 0.0, 0.15600067377090454, 0.0, 0.0, -0.025331193581223488, 0.0, 0.0, 0.0, -0.03645380958914757, 0.0, -0.0003246534615755081, 0.04838967323303223, 0.22876423597335815, -0.11549768596887589, 0.05556715652346611, 0.0, 0.0, -0.7342332005500793, 0.055305127054452896, -0.018558885902166367, 0.0, -0.08723270148038864, 0.0, 0.0, -0.34293344616889954, 0.0, -0.0004412462585605681, 0.20479683578014374, 0.04241681098937988, 0.0, -0.28429314494132996, 0.0, 0.13498306274414062, 0.0, 0.39831656217575073, 0.15768899023532867, -0.36447474360466003, 0.13222356140613556, 0.0, 0.19177009165287018, -0.016422538086771965, 0.0, 0.0, -0.04588589817285538, 0.0, 0.0, 0.0, 0.8444235920906067, -0.0018646252574399114, 0.0475950688123703, 0.23176135122776031, 0.0, 0.0, 0.0, -0.025011781603097916, 0.0, 0.37231743335723877, -0.030558792874217033, 0.621950089931488, 0.0, -0.013186427764594555, -0.09079677611589432, -0.10970526188611984, 0.0, 0.0, 0.0, 0.0, 0.0, -0.01524684764444828, -0.11901449412107468, -0.014511652290821075, 5.428262710571289, 0.23281387984752655, 0.19511465728282928, -0.00647697364911437, -0.03821850195527077, -0.009192433208227158, 0.0, -0.09129951894283295, 0.0, 0.0, 0.0, 0.559356153011322, -0.05140961334109306, -0.03771531209349632, 0.0, -0.01996946707367897, -0.005220801569521427, -0.02459348551928997, 0.0, -0.0005177184357307851, -0.0029195318929851055, 0.0, -0.07242029905319214, -0.028698598966002464, 0.0, -0.26607951521873474, -0.01716085709631443, 0.34421074390411377, 0.0, 0.0, 0.06100154295563698, -0.03262009844183922, -0.018514808267354965, -0.002206682227551937, 0.20624755322933197, 0.0, 0.0, 0.0, 0.0, 0.05129363015294075, -0.08843161910772324, 0.0, -0.00916401669383049, -0.04847000911831856, 0.0, -0.004254416096955538, -0.025331193581223488, 0.0, 0.0, 0.0, 0.0, 0.0, 0.006013474427163601, 0.1536022424697876, 0.15293367207050323, -0.02799201011657715, 0.10479476302862167, 0.0, 0.0, 0.026420509442687035, 0.0, 0.0, -0.005408524535596371, 0.0, -0.005843059159815311, 0.0, 0.0, 0.0, 0.0, 0.0, 0.7748628854751587, 0.0, 0.0, 0.0, 0.0, -0.00253797834739089, 0.0, -0.1419573426246643, 0.0, 0.042007479816675186, 0.0, 0.0, -0.046964798122644424, 0.0, 0.0, 0.0, 0.054400552064180374, 0.0, -0.05276518687605858, 0.0, -0.005557060241699219, 0.33577755093574524, 0.0, 0.0, -0.011015748605132103, 0.0, 0.09496795386075974, -0.01899712160229683, 0.0, 0.17273078858852386, 0.0, -0.13831444084644318, 0.0063194106332957745, 0.0, 0.0, -0.11087063699960709, 0.0, 0.0, 0.0, 0.0, -0.0028575086034834385, 0.0, -1.2954777479171753, 0.0, -0.014870140701532364, 0.042466603219509125, -0.059807755053043365, 0.2537022531032562, 0.5500255227088928, -0.06236284226179123, 0.39887523651123047, -0.013077380135655403, 0.0, -0.00022752680524718016, -1.1997078657150269, -0.023511044681072235, 0.0, 0.25243011116981506, -0.22516925632953644, 0.3849497437477112, -0.056496746838092804, 0.0, 0.0, -0.49479880928993225, -0.03437485918402672, -0.02368498593568802, -0.01704697124660015, -0.0982208102941513, -0.005946979392319918, 0.15270572900772095, -0.16755031049251556, -0.007015105336904526, 0.0, 0.0, 0.41016674041748047, 0.0, 0.0, 0.0, -0.027293812483549118, 0.2683804929256439, 0.05063767358660698, 0.0, -0.04016507789492607, 0.01866607367992401, -0.01683688722550869, 0.0, 0.0, -0.010572938248515129, -0.4371602237224579, 0.0, 0.37966927886009216, -0.11902465671300888, 0.0, 0.0, 0.07314533740282059, 0.0, -0.339862197637558, 0.0, 0.0, 0.17948360741138458, 0.0, 0.0, -0.10202940553426743, 0.0, 2.3292007446289062, 0.0, -0.06901685148477554, 1.3201489448547363, -0.5013917088508606, 0.07909411936998367, 0.03234581649303436, 0.0, 0.0, -0.015219362452626228, 0.42722368240356445, 0.0, 0.0, -0.002119219396263361, -0.13357050716876984, 0.0, 0.0, 0.20235556364059448, 0.0, -0.02099473774433136, 0.4701460003852844, 0.046078722923994064, 0.0, 0.0, 0.31049931049346924, 0.0, 0.0, 0.0, -0.0037588418927043676, -0.010456823743879795, -0.07502381503582001, -2.231353998184204, 0.0, -0.032110586762428284, 0.0, -0.039906468242406845, 0.0, -0.4717300236225128, -0.03679566830396652, 0.0, 0.0, -0.14245393872261047, 0.0, 0.1045527458190918, 0.0, -0.06916610151529312, -0.021194398403167725, -0.22711603343486786, -0.007138281594961882, 0.0, 0.13296009600162506, 0.1677646040916443, 0.21280843019485474, 0.0, -0.0013397911097854376, 0.0, 0.0, -0.039093878120183945, 0.0, -0.04072931781411171, 0.05054869502782822, -0.10352179408073425, -0.01362842321395874, -0.0008301981724798679, 0.06164846941828728, 0.0, 0.026027994230389595, -0.24253754317760468, 0.20956772565841675, 0.0, -0.03515945002436638, -0.02966884896159172, 0.36830630898475647, -0.06161901354789734, -0.026069706305861473, 1.5219391584396362, -0.003833000548183918, -0.0445675291121006, 0.0, 0.17247115075588226, 0.0, -0.0379590205848217, -0.009803629480302334, 0.0013628773158416152, 0.0, 0.0, 0.20053671300411224, 0.0, 0.0, 0.6605125069618225, 0.38192981481552124, 0.0, -0.003018589224666357, -0.041204456239938736, 0.3029032051563263, 0.0, 0.0, 0.03444735333323479, -0.009645948186516762, 0.0, 0.0, 0.0, 0.3418785035610199, -0.008382955566048622, -0.010213564150035381, 0.0, 0.05425180494785309, 0.5096087455749512, -0.0017850900767371058, 0.0, 0.13099852204322815, 0.0, 0.0, -0.3709169030189514, 0.0, 0.11373548954725266, -0.4042727053165436, -0.025331193581223488, -0.00565731804817915, 0.0, 0.0, 0.0, -0.03843999654054642, 0.0, 0.0974792018532753, -0.02357029728591442, 0.0, -0.03429250419139862, -0.02569468691945076, -0.007315178867429495, -0.020720211789011955, -0.018123557791113853, 0.0, 0.047929953783750534, 0.0, -0.11776372045278549, 0.06242487207055092, 0.0, -0.12668348848819733, 0.0, -0.47643935680389404, 0.0, -0.030682170763611794, 0.044922836124897, 0.0, -0.005613909102976322, -0.015067962929606438, -0.10611597448587418, 0.0, 0.02892780676484108, -0.02760048769414425, -0.5058475732803345, 0.0, -0.007930598221719265, 0.0, 0.20733115077018738, -0.006298147141933441, 0.0, -0.08819156140089035, 0.0, 0.037673983722925186, 0.0, -0.018598373979330063, 0.0, 0.06103063374757767, -0.09792634099721909, 0.007426534313708544, 0.0, -0.03679566830396652, 0.0, -0.003168403636664152, 0.0, 0.0, -0.0042506796307861805, -0.09123146533966064, 0.7253119945526123, 0.0, 0.0378030501306057, -0.012415755540132523, 0.0, 0.0, -0.04308216646313667, 0.0, -0.012955796904861927, 0.194173201918602, 0.11888506263494492, 0.027160093188285828, 0.4900055527687073, 0.0, 0.4909552335739136, 0.3067447543144226, 0.0, 0.7825705409049988, 0.035414427518844604, -0.22250312566757202, -0.006865046452730894, 0.0, 0.04106302559375763, 0.0, 0.5539801120758057, 0.026892654597759247, 0.3154638707637787, 0.0, -0.0065644062124192715, 0.0, 0.0, -0.0017298031598329544, 0.07665085047483444, -0.014559403993189335, 0.0, -0.08407323807477951, 0.0, 0.0, -0.012835141271352768, 0.01952826790511608, -0.022028477862477303, 0.0, 0.0, 0.15600067377090454, -0.03023359179496765, 0.0, 0.04322121664881706, -0.013409169390797615, 0.0, 0.025150902569293976, -0.09790559858083725, 0.0, -0.016456356272101402, 0.0, 0.1485581248998642, 0.0, 0.32228773832321167, -0.10464959591627121, 0.0, 0.25367453694343567, 0.0, 0.0, 0.0, 0.0, 0.0, -0.00012018078996334225, 0.0, 0.0, -0.003566885832697153, 0.0, 0.0, -0.01715477742254734, -0.0012865201570093632, 0.0, 0.0, 0.0, -0.083591029047966, -0.10059719532728195, 0.0, 0.31123262643814087, -0.0016427465016022325, 0.0, 0.0, 0.0, -0.07638097554445267, -0.05273548513650894, 0.0, 0.0, -0.13231056928634644, -0.0004412462585605681, 0.0, 0.15500694513320923, 0.0, -0.198412224650383, 0.0, 0.3387637138366699, 0.0, -0.0023993495851755142, -0.04658571258187294, 0.7033032774925232, 0.05295265093445778, -0.016214506700634956, 0.0, 0.0, 0.10750018060207367, -0.0020283409394323826, -0.16740146279335022, -0.22862420976161957, 0.0, 0.0, -0.004545894917100668, 0.11284981667995453, 0.0, -0.33755263686180115, 0.0, -0.00019404217891860753, 0.0, 0.0, 0.0, 0.026962919160723686, -0.00916401669383049, 0.0, 0.0, 0.0, 0.0, -0.03255932033061981, 0.0, 0.25707757472991943, 0.04202355816960335, 0.0, -0.0025931946001946926, -0.19425079226493835, -0.028208009898662567, -0.006702903192490339, -0.05853351950645447, -1.5937308073043823, -0.025331193581223488, -0.19088099896907806, -0.02214602567255497, -0.15433506667613983, 0.0, -0.08743993937969208, -0.09607309103012085, -0.026116766035556793, 0.0, 0.0, 0.0, 0.0, -0.038063984364271164, 0.0, 0.0, 0.0, -0.008955408819019794, 0.07287465780973434, 0.14699167013168335, 0.0, 0.0, 0.0, 0.00930794607847929, 0.0, -0.007988733239471912, -0.01129218190908432, 0.27338361740112305, -0.02070857770740986, 2.6326687335968018, -0.006983042694628239, -0.02376380003988743, 0.0, 0.47721171379089355, 0.0, 0.0, 0.0, -0.028346126899123192, -0.06316468864679337, 0.012255695648491383, -0.012500215321779251, -0.4377550482749939, 0.0, 0.0361424945294857, 0.0, 0.0, 0.0, 0.0, 0.0, -0.16137616336345673, 0.0, 0.0, 0.7345837354660034, 0.0, -0.013154687359929085, 0.0, 0.7887144088745117, 0.0, 0.3291049003601074, 0.04106302559375763, -0.02519875392317772, 0.2743237614631653, -0.04983338341116905, -0.003819316392764449, 0.0, 0.0, -0.07303381711244583, -0.004400307312607765, -0.05284148454666138, 0.12820622324943542, -0.06279940158128738, -0.007337042596191168, -1.2303884029388428, 0.0, 0.0, 0.0, 0.08348353207111359, 0.0, 0.0, -0.07423996180295944, 0.3281306028366089, 0.0, -0.28132933378219604, 0.0, -0.20277555286884308, -0.08232712745666504, 0.0, -0.06417646259069443, 0.0, 0.0, 2.192791700363159, 0.0, -0.17911897599697113, -0.02379891835153103, 0.0, 0.10196692496538162, -0.6400597095489502, 0.09525585919618607, -0.0062460643239319324, -0.02633368782699108, -0.025331193581223488, -0.030281556770205498, -0.005129861645400524, -0.10627830028533936, 0.11108991503715515, 1.036151647567749, 0.1283745914697647, 0.0, 0.0, 0.0, -0.05385517328977585, 0.0, -0.0012053665705025196, -0.013444755226373672, 0.0, -0.03476952388882637, 0.03609735146164894, 0.04254778474569321, -0.4562985599040985, 0.004923683591187, 0.9693962335586548, 0.02496560849249363, 0.0, 0.26351746916770935, 0.0, -0.021004531532526016, 0.0, 0.0, 0.11707929521799088, 0.043861273676157, 0.0, -0.36190998554229736, 0.0, -0.6752469539642334, 0.0, 0.3545495569705963, 0.3568289875984192, -0.009332768619060516, -0.008028628304600716, -0.020095229148864746, -0.2459040731191635, 0.0, 0.3019612729549408, 3.750175952911377, 0.0, 1.601871132850647, 0.0, -0.09460678696632385, 0.0, 0.0, -0.218561053276062, 0.0, -0.0542035773396492, 0.07457615435123444, -0.010539067909121513, 0.5505238175392151, -0.1020173579454422, 0.0, 0.25358113646507263, 0.0, 0.044345732778310776, 0.0, 0.006711821537464857, 0.1164616122841835, 0.0, 0.0, -0.07091158628463745, 0.045815665274858475, 0.0, -0.2868732213973999, -0.02702220529317856, -0.16678386926651, 0.04219266399741173, 0.0, -0.0035944029223173857, 0.0, -0.17159399390220642, 0.0, -0.05071410909295082, -0.008718612603843212, -0.06084767356514931, 0.0, 0.20940937101840973, -0.12411825358867645, -0.06587852537631989, 0.033907435834407806, -0.043974507600069046, 0.23767639696598053, -0.018945768475532532, 0.0, -0.005117547698318958, -0.0009544359054416418, 0.0, 0.16215737164020538, 0.0, 0.1493910253047943, 0.019733481109142303, -0.6516920924186707, 0.07340025156736374, -0.01454099826514721, 0.036395490169525146, 0.0, -0.11333855986595154, -0.02366442047059536, 0.2633399963378906, 0.0, -0.1867799311876297, 1.1700267791748047, 1.46857488155365, -0.0231032595038414, 0.0, 0.19076862931251526, -0.00624071853235364, -0.11811807751655579, -0.014280480332672596, 0.0, 0.0, -0.18389743566513062, 0.0, 0.0, 0.0, -0.06255175918340683, 0.0, 0.0, 0.0, 0.0, 0.5146079063415527, 1.926069974899292, 0.0, -0.10810396075248718, -0.0004715528048109263, 0.0, 0.0, -0.015135307796299458, 0.0, 0.16940689086914062, 0.0, 0.032254960387945175, 0.19337098300457, 0.16248288750648499, -0.008756990544497967, -0.06994599848985672, -0.006074027623981237, 0.11479751765727997, 0.0, 0.12073621898889542, 0.8198907971382141, 0.0, -0.014784179627895355, -0.008736083284020424, -0.04889998584985733, -0.0009872950613498688, 0.0, 0.0, 0.0, 0.20255310833454132, 0.0, 0.0, -0.17672580480575562, 0.0, 0.014254351146519184, 0.0, -0.07592079043388367, -0.00019404217891860753, -0.00565731804817915, 0.0, -0.005840629804879427, -0.02702220529317856, 0.7414563894271851, 0.0, 0.49897414445877075, 0.09885095804929733, -0.030583027750253677, 0.0, 0.0, 0.0, -0.03909546881914139, 0.0, 0.0, 0.0, -0.009481520392000675, 0.0, -0.12010572850704193, 0.0, -0.40710291266441345, 0.0, 0.05561905354261398, -0.015848971903324127, 0.03604695573449135, 0.0, -0.04939865320920944, -0.13005569577217102, 0.0, 0.0, -0.009394890628755093, -0.012185865081846714, -0.03679327666759491, -0.011223246343433857, -0.012486280873417854, 0.0, -0.0073350537568330765, 0.0, 0.6831992864608765, 0.0, 0.0, -0.11828956753015518, 0.0, -0.18669812381267548, 0.0, 0.0, 0.0, -0.04040820524096489, 0.0, 0.8731170892715454, -0.0033094538375735283, 0.24069486558437347, 0.0, 0.0, -0.02981303259730339, 0.0, 0.1575547754764557, 0.058583814650774, 0.18361973762512207, 0.19021174311637878, -0.0008038106607273221, 0.04725188761949539, 0.45164617896080017, 1.1361420154571533, 0.0, 0.0, 0.0, -0.019114559516310692, -1.5836732387542725, 0.0, -0.13251614570617676, -0.4062595069408417, 0.09638143330812454, 0.06425405293703079, -0.09277920424938202, 0.042154233902692795, 0.13277064263820648, 0.14259693026542664, -0.7367416620254517, 0.0, 0.0, -0.01881195232272148, -0.0139737818390131, -0.011223246343433857, 0.007262127008289099, 0.014277172274887562, 0.0, -0.009448979049921036, 0.026380768045783043, 0.4145822823047638, 0.0, 0.22915196418762207, 0.011799256317317486, -0.0007200069958344102, 0.0, 0.1771852672100067, -0.008900742046535015, 0.0, -0.4535384178161621, -0.005462758243083954, 0.0, 0.14510619640350342, 0.0, -0.018123557791113853, 0.002629288239404559, 0.0, -0.009204600006341934, 0.0, 0.0, 0.0, 0.0, 0.0, 0.0, 0.07457615435123444, 0.0, 0.0, 0.0, 0.05129363015294075, 0.0, -0.0009585959487594664, 0.7930929064750671, -0.2713165283203125, 0.21172739565372467, 0.6850548982620239, 0.021570540964603424, 0.0, -0.06052544340491295, -0.010481327772140503, 0.12983141839504242, 0.0, -0.7753377556800842, 0.0, 0.0, -0.053335290402173996, 0.0, 0.0, -0.009060760028660297, -0.09854961931705475, -0.0046473280526697636, 0.0, 0.0, 0.0638071745634079, 0.4158315062522888, 2.8980789184570312, 0.21272119879722595, -0.02601008489727974, -0.004604687448590994, 0.2777552902698517, -0.17391587793827057, 0.4209132194519043, 0.0, 0.0, -0.0041730934754014015, -0.025644293054938316, 0.0, -0.010288001969456673, -0.0016516071045771241, -0.020346563309431076, -0.12796838581562042, -0.14200244843959808, 0.0, 0.02795318327844143, 0.0, 0.0, 0.029425445944070816, -0.3684844970703125, 0.033907435834407806, 0.0, 0.0, 1.2874516248703003, -0.007649776991456747, -0.01007299404591322, -0.009469018317759037, -0.01668470911681652, 0.0, 0.0, 0.41233545541763306, 0.0, -0.2185717225074768, -0.02394549548625946, 0.0, 0.0, 0.0, 0.0, 0.048427075147628784, 0.0, 0.01208439376205206, -0.0009264385444112122, 0.0, -0.006969013251364231, -0.06566708534955978, 0.0, 0.26364782452583313, -1.3455535173416138, 0.0, -0.006865046452730894, 0.1401452273130417, 0.0, -0.0035504838451743126, 0.0, 0.0, 0.0, 0.0, 0.0, 0.0, 0.0, 0.0, -0.005123022478073835, -0.3090782165527344, 0.0, 0.06292346864938736, -0.4670039713382721, 0.0, 0.04202355816960335, 0.0, 0.05544731393456459, -0.042610373347997665, 0.0, 0.31743553280830383, 0.0, 0.0, 0.0, -0.14053967595100403, 0.0, 0.0, 0.2131274789571762, -0.0213033314794302, -0.005392415449023247, 0.0, -0.07702957838773727, 0.0, 0.0, 0.0, -0.0031665321439504623, -0.020283909514546394, -0.022274455055594444, -0.20708204805850983, 0.0, 0.0, -0.008877838961780071, -0.027119087055325508, 0.0, -0.0722908154129982, 0.0, -0.038284219801425934, -0.0037305366713553667, -0.05842181295156479, 0.0, 0.03811566159129143, -0.012110990472137928, 0.3778703212738037, -0.02885577827692032, 0.0, -0.02587178535759449, -0.33679699897766113, -0.06018426641821861, 0.0, -0.1504843682050705, -0.014154117554426193, 0.0, 0.08066228032112122, 0.12753237783908844, -0.03824920579791069, -0.04485994577407837, 0.0, -0.05743084475398064, -0.034506700932979584, 0.13070017099380493, 0.0, 0.1987609565258026, 0.0, 0.34011995792388916, 1.9485782384872437, 0.0, 0.0, 0.004366515204310417, -0.09898798167705536, -0.031611084938049316, 0.0, -0.019458048045635223, 0.0, -0.15585316717624664, 2.1865670680999756, -0.0064400737173855305, 0.06787604838609695, -0.04371054843068123, 0.0, -0.015893777832388878, -0.0536436066031456, -0.001077101449482143, 0.0, -0.0032880224753171206, -0.0114433653652668, -0.00750320591032505, -0.015219362452626228, -0.0425909049808979, 0.0, 0.35170844197273254, -0.0023333949502557516, 0.0, -0.0042256382293999195, 0.0, 0.0, -0.0445675291121006, 0.0, 0.022782325744628906, 0.0, 0.0, 0.0, 0.05089667811989784, -0.061345431953668594, 0.14468246698379517, -0.051154106855392456, 0.04250975325703621, 0.0, 0.0, -0.14636434614658356, 0.0, 0.32209083437919617, 0.0, -0.05571254715323448, 0.0, 1.0823122262954712, 0.0, 0.0, -0.0033406997099518776, 0.7278175354003906, 0.0, 0.0, 0.0, 0.0, -0.04025699943304062, 0.0, 0.0, 0.18344298005104065, 1.66270911693573, 0.38244831562042236, 0.0, 0.0, 0.0, 0.0, 0.0, 0.0, 0.0, 0.0, -0.010826152749359608, -0.0028575086034834385, 0.0, -0.0027424925938248634, 0.12261418998241425, -0.008932078257203102, 0.012626174837350845, -0.040265485644340515, 0.047337718307971954, 0.0, -0.12319966405630112, 0.0, -0.013211024925112724, 0.0, -0.013713701628148556, 0.0, 0.36849039793014526, 0.2075846642255783, 1.096055269241333, 0.0, -0.0008293177234008908, -0.046964798122644424, -0.035264480859041214, 0.0, 0.0, 0.1575547754764557, 0.0, -0.009070777334272861, 0.0, -0.057122621685266495, -0.024452706798911095, 0.0, -0.04493323341012001, 0.08138491958379745, 0.0, 0.3388502895832062, -0.1058143600821495, 0.06333509087562561, 0.5838724374771118, 0.0, 0.7258700132369995, 0.0, 0.0, 0.0, -0.05957295000553131, 0.0, 0.42057549953460693, 0.0, -0.07655639201402664, 0.0, -0.02855265513062477, -0.019145118072628975, 0.0, 0.0, 0.31351375579833984, 0.11794433742761612, -0.028597893193364143, -0.0038098779041320086, -0.35649287700653076, -0.02966730110347271, -0.029022973030805588, 0.0, 2.1346306800842285, 0.14391450583934784, 0.0, 0.0, 0.057038795202970505, 0.06245327368378639, 0.0, 0.016445066779851913, 0.0, 0.0, -0.004457310773432255, -0.026069706305861473, 0.0, -0.18952177464962006, 0.0, -0.04152072221040726, -0.015133335255086422, 0.0, 0.2875848114490509, 0.0, 0.0, 0.0, -0.07800968736410141, -0.008739257231354713, 0.0, 0.2667720317840576, 0.0, 0.660148561000824, 0.0, -0.016811762005090714, 0.0, -0.03441343829035759, -0.07630670815706253, 0.0, 0.07368696480989456, 0.016601841896772385, 0.0, 0.0, 0.0, 0.21073120832443237, -0.08196353167295456, 0.045456402003765106, -0.0665016695857048, -0.030212504789233208, 0.013832679949700832, -0.0008301981724798679, -0.004356151446700096, -0.006535794120281935, 0.0, 0.0, -0.11025921255350113, 0.0, 0.0, 0.0, -0.014856123365461826, -0.08930683135986328, 0.0, -0.0034877355210483074, 0.0, 0.0, -0.1127844974398613, 0.0, 0.0, 0.0, -0.0727088451385498, -0.13169775903224945, 0.0, 0.0, 0.0, 0.0, 0.0, 0.0, -0.36334657669067383, 0.0, -1.3478882312774658, 0.0, 0.30132171511650085, -0.03142101317644119, -0.002079413738101721, 0.0, -0.023093506693840027, 0.0, 0.0, 0.0, -0.016825243830680847, 0.0, 0.0, -0.06798001378774643, 2.3711817264556885, 0.3137322962284088, 0.0, 0.0, 0.010879301466047764, 0.014235622249543667, 0.0, -0.116657555103302, 0.30983346700668335, 0.0, 0.0, 0.12714669108390808, 0.029945703223347664, -0.0004222879360895604, -0.0038250049110502005, -0.010217169299721718, 0.0, -0.0017466145800426602, -0.0015124817145988345, -0.02707863785326481, 0.07007994502782822, 0.0, 0.07130587846040726, 0.06453989446163177, 0.6304858326911926, 0.08482623845338821, 0.07407840341329575, -0.006253913510590792, 0.1052597388625145, -0.03118135593831539, 0.286642462015152, 0.0, -0.01162116602063179, 0.0, -0.04699213430285454, -0.0021936253178864717, 0.0, 0.0, 0.0, 0.37652626633644104, 0.0, -0.11552100628614426, -0.08674129098653793, 0.0, 0.0, -0.07020202279090881, 0.24443332850933075, 0.0, 0.1366557627916336, -0.087298184633255, 0.0, -0.06498752534389496, -0.2150709480047226, 0.0, -0.2586366832256317, 0.0, 0.0, 0.15477430820465088, -0.03084411658346653, 0.0, -0.013310081325471401, 0.0, 0.0, 0.0, -0.2480229288339615, 0.0, 0.0, -0.08744935691356659, 0.0, 0.0, 0.018715480342507362, 0.0, 0.0, 0.039741989225149155, 0.0, 0.0, 0.517345130443573, 0.0, 0.29534676671028137, 0.0, -0.03437485918402672, 0.0, 0.3108074367046356, 0.0, -0.11924408376216888, -0.0007923204102553427, -0.016994189471006393, 0.019445035606622696, 0.0, 0.6887906789779663, -0.08083122968673706, 0.0, -0.013733403757214546, 0.0, 0.0, 0.0, -0.012363091111183167, 0.0, 0.04123833775520325, 0.04213074594736099, 0.0, 0.0, 0.0, 0.24034978449344635, 0.08258143067359924, -0.0036019745748490095, 0.0, 5.408792972564697, 0.0, 0.4912329614162445, -0.11044050753116608, 0.0, -0.023642389103770256, 0.0, 0.0, 0.8731929063796997, -0.01129218190908432, -0.10809442400932312, 0.0, -0.07408593595027924, 0.0, 0.739741325378418, -0.022608675062656403, 0.0, -0.0763673409819603, -0.006782116834074259, -0.2185809314250946, 0.20719844102859497, 0.0, 0.20285071432590485, -0.010618903674185276, -0.01328140776604414, -0.0124089065939188, -0.22490531206130981, -0.5892232656478882, 0.0, 0.0, -0.04000791907310486, -0.17877867817878723, 0.0, 0.0, -0.04434935748577118, -1.3682053089141846, 0.0, 0.0, 0.0, -0.035056911408901215, -0.09156674146652222, -0.03664793819189072, 2.057020425796509, -0.34615710377693176, -0.008234289474785328, 0.0, 0.0635935366153717, 0.2179187536239624, 0.356649786233902, -0.1900397539138794, -0.031348519027233124, -0.023603342473506927, 0.0, -0.10928953438997269, -0.08636386692523956, -0.4490109384059906, -0.009299750439822674, -0.02720673382282257, 0.06700056791305542, 0.27387985587120056, -0.010572938248515129, -0.05673867091536522, -0.0072241793386638165, 0.0, -0.206925168633461, -0.05840417370200157, 0.0, -0.019933849573135376, 0.0, 0.1548270732164383, 0.09256213158369064, 0.01735733263194561, 0.0, 0.38548630475997925, -0.27944910526275635, -0.02674584649503231, 0.3378843069076538, 0.0329943485558033, 0.0, 0.17386046051979065, 0.6951876878738403, -0.03235691785812378, 0.0, 1.0842037200927734, 0.02711556665599346, 0.5615179538726807, -0.0013185570714995265, -0.01340231578797102, -0.0947442278265953, -0.07745221257209778, 0.0, 0.0, 0.0, 0.34961065649986267, 0.0, 0.0, 0.0, 0.0, 0.0, 0.0, -0.01407239492982626, -0.0007790207746438682, 0.11264830082654953, -0.01832803338766098, 0.06668665260076523, 0.0, 0.0, 0.0, 0.03151789307594299, -0.003567273495718837, -0.01117959525436163, -0.005212432239204645, 0.0, 0.0, 0.0, 0.0, -0.03105510212481022, 0.0, -0.07120899111032486, -0.03361789509654045, -0.028158120810985565, -0.08124367147684097, -0.04095695912837982, 0.47095203399658203, 0.0, 0.0, 0.0, 0.31898218393325806, -0.013708483427762985, 0.6017411947250366, 0.5303542613983154, 0.0, -0.00991989765316248, 0.7427865862846375, 0.0, -0.016259824857115746, 0.0, -0.0014342748327180743, -0.02148306928575039, 0.0, 0.0, 0.0, -0.00012157091259723529, 0.08940988034009933, -0.039997342973947525, 0.0, 0.29443028569221497, 0.0, -0.0055718994699418545, 0.0, -0.025296980515122414, 0.04467468336224556, 0.0, 0.03105749934911728, 0.03396110236644745, -0.28740307688713074, 0.0, -0.0016452142735943198, 0.9184914827346802, 0.44570544362068176, 1.8540445566177368, 0.0, 0.2332618236541748, -0.07027600705623627, -0.008765004575252533, -0.020283909514546394, -0.026581289246678352, 0.500332772731781, 0.07065896689891815, 0.0, 0.0, -0.17797870934009552, 0.0, -0.11896064132452011, 0.0, -0.025461021810770035, -0.004175955895334482, -0.011223246343433857, -0.002660096623003483, -0.13797488808631897, 0.0, -0.13156411051750183, -0.04991376772522926, -0.008493758738040924, -3.155409336090088, -0.03773432597517967, 0.0, 0.0, 0.2422734647989273, 0.19311250746250153, -0.003307248465716839, 0.31695351004600525, -0.029370687901973724, -0.09213588386774063, -0.0015075808623805642, -0.01565585285425186, 0.0, -0.21180784702301025, 0.0039286804385483265, 0.0, 0.0, 0.0, 0.10957090556621552, -0.019840344786643982, 0.18774381279945374, -0.296542763710022, -0.01617484726011753, 0.0, 0.0, 0.0, 0.39182448387145996, 0.0, 0.09372912347316742, 1.3062001466751099, -0.000918212637770921, -0.05077734589576721, 0.0, 0.0, -0.06279940158128738, -0.04150579124689102, 0.0, 0.39182373881340027, 0.0, 0.0, 0.0, 0.0, 0.050624437630176544, 0.02560426853597164, -0.049314193427562714, 0.0, -0.006857370957732201, 0.0, 0.19716618955135345, -0.014846625737845898, -0.6344651579856873, -0.038284219801425934, 0.0, 0.0, -0.05596844106912613, 0.0, 0.039741989225149155, -0.1924791783094406, 0.0, 0.0, -0.11301722377538681, 0.0, 3.7855887413024902, 0.2781470715999603, -0.006714595016092062, -0.010572938248515129, 0.031344667077064514, -0.03351680934429169, 0.37648269534111023, 0.0, -2.249725103378296, -0.009150199592113495, 0.0, 0.0, -0.02554157003760338, 0.032970741391181946, 0.0, 0.0, 0.20065349340438843, 0.0, 0.0398336797952652, -0.04297107830643654, 0.0, -0.08321920037269592, 0.0, 0.0, -0.040469396859407425, 0.0, 0.0, 0.0, 0.49124908447265625, 0.16941191256046295, -0.06223012134432793, 0.0, 0.0, 0.0, -0.00536057585850358, 0.060488082468509674, 0.0, 0.3774328827857971, 0.0, 0.0, -0.0017327291425317526, 0.0, 0.02096802555024624, -0.046975307166576385, 0.0, -0.001046202378347516, 0.0, 0.03683625906705856, 0.0, 0.0, -0.016825243830680847, 0.07407840341329575, 0.0, -0.0021420589182525873, -0.003833000548183918, -0.07886041700839996, 0.0, -0.017382821068167686, 0.109164297580719, -1.3355990648269653, 0.0, -0.018688462674617767, 0.09615635871887207, -0.2546498775482178, 0.0, 0.0, -0.13522425293922424, 0.0, 0.0, -0.1853165477514267, 0.07558246701955795, 0.0, -0.0011152316583320498, 0.04682141914963722, -0.1777406632900238, 0.0, -0.006196898408234119, 0.0, -0.011053589172661304, -0.0004412462585605681, -0.005730449687689543, 0.007844355888664722, 0.0, -0.22126390039920807, 0.0, 0.0, 0.0, 0.0, -0.020718691870570183, 0.0, -0.009649732150137424, 0.0, 0.07174839079380035, 0.0, -0.04248902574181557, 0.0, 0.043861273676157, -0.0024976686108857393, -0.06331151723861694, -0.01890266314148903, -0.20613369345664978, -0.028527364134788513, -0.0010404213098809123, -0.041413288563489914, 0.7605683207511902, -0.0023234966211020947, 0.0, 0.0, 0.0, -0.0013795136474072933, -0.018291529268026352, 0.0, 0.0, 0.01735733263194561, -0.06930556148290634, -0.16474765539169312, 2.383388042449951, 0.0, 0.0, -0.07359092682600021, 0.0, -0.02796781435608864, 0.0, -0.015947528183460236, -0.023450158536434174, 0.0, 0.0, -1.0945526361465454, 0.0, 0.0, -0.07887391746044159, 0.05294026434421539, -0.3428932726383209, 0.0, -0.0031424120534211397, 1.4370239973068237, 0.0, 0.06582225114107132, 0.0, -0.04707494005560875, 0.0, 0.03245748579502106, -0.0010852121049538255, 0.0, 0.0, 0.0, 0.0, 0.0, -0.02337145060300827, -0.134928897023201, -0.08588183671236038, 0.0, 0.0, 0.5262771248817444, 0.10249080508947372, -0.321306973695755, 0.0, 0.3411238193511963, 0.15500694513320923, 0.0, -0.35199880599975586, -0.006743691395968199, 0.0, 0.0, -0.06319166719913483, -0.007998657412827015, 0.0, 0.0, 0.014574185945093632, 0.0, 0.0, 0.0, 0.0, -0.10711968690156937, -0.021741854026913643, 0.0, 0.0, 0.0, 0.0, -0.0006228295969776809, 0.0, 0.08147592842578888, -0.003566885832697153, 1.56891930103302, -0.1090068370103836, -0.01948118396103382, -0.10094276815652847, -0.0018388874595984817, 0.0, 0.0, -0.05058415234088898, 0.06338927149772644, 0.2845495641231537, 0.0, 0.0, 0.0, 0.49680957198143005, -0.014176344498991966, -0.007843644358217716, 0.0, -0.06295787543058395, 0.0, 0.0, 0.026470132172107697, 0.0, 0.0, -0.18431831896305084, -0.037194862961769104, -0.0017438019858673215, -0.010310443118214607, 0.0, 0.0, 0.0, 0.0, -0.043094146996736526, -0.2382267415523529, -0.013053602539002895, 0.05054869502782822, 0.0, 0.0, 0.0, -0.07138257473707199, -0.19225254654884338, 0.4066276252269745, 0.0, 0.0, 0.0, 0.0, 0.0, -0.21007950603961945, 0.0, 0.0, 0.0, 0.0, -0.12833493947982788, 0.0, 0.0, 0.0, -0.04083585366606712, -0.010737059637904167, 3.425638437271118, -0.07872342318296432, 0.8841521739959717, 0.0, 0.015256593003869057, -0.2724497616291046, 0.0, 0.0, 0.0, 0.0, 0.5431506633758545, 0.36663636565208435, 0.0, 0.09228375554084778, -0.049989987164735794, -0.010553366504609585, -0.006865046452730894, 0.0, 0.0, 0.0, -0.010604944080114365, 0.16079705953598022, 0.0, 0.0, -0.362641304731369, -0.06874314695596695, -0.0709599107503891, -0.21311143040657043, -0.0001971400051843375, -0.040258314460515976, 0.0, -0.002288175979629159, 0.0, 0.0, 0.0, 0.0, 0.15680186450481415, -0.009554470889270306, 0.1815306544303894, 0.0, -0.059261173009872437, -0.016963951289653778, -0.6845132112503052, 0.0, 0.7158048152923584, -0.0925089418888092, 0.0, -0.017231663689017296, -0.017428884282708168, -0.003088040044531226, -0.11854059249162674, 0.0, 0.020110130310058594, -0.005124977324157953, 0.0, -0.01231846958398819, -0.23077404499053955, -0.008688955567777157, -0.1775943785905838, 0.0, -0.172138512134552, 0.0, 0.4169752299785614, 0.14450229704380035, 0.1023770347237587, 0.25521835684776306, 0.0, 0.1527247279882431, 0.0, -0.039225369691848755, -0.019516587257385254, 0.046078722923994064, -0.04485994577407837, -0.030966177582740784, 0.0, 0.0, 0.11187492311000824, 0.8865091800689697, 0.0, -0.02521529607474804, -0.00847288966178894, 0.0, 0.0, -0.015447340905666351, -0.10714701563119888, 0.0, -0.0752856433391571, 0.0, -0.23473472893238068, -0.010363848879933357, -0.0684131607413292, 0.0, -0.18161238729953766, 0.0, 0.0, 0.0, 0.0, -0.08020433783531189, 0.0, 0.0, -0.04750852286815643, 0.030172094702720642, -0.01875423826277256, -0.05307170748710632, -0.39122912287712097, -0.05573096126317978, 0.0, 0.06762228906154633, 0.0, -0.061564892530441284, -0.0031964064110070467, -0.01007299404591322, -0.01881195232272148, -0.29076340794563293, 0.0, 0.0, -0.0018542135367169976, 0.0, -0.06384330987930298, 0.0, 0.0, -0.0019917134195566177, -0.07606722414493561, 0.0, 0.020074661821126938, 2.5009632110595703, -0.11025921255350113, 0.0, 0.0, -0.022091494873166084, 0.0, 0.0, 0.18238422274589539, 0.0, 1.2189490795135498, -0.15977783501148224, 0.0, -0.26135948300361633, 0.0, 0.043761830776929855, 0.04514990746974945, -0.09497930854558945, 0.026247277855873108, 0.0, 0.08913496136665344, -0.20242942869663239, 0.0, 0.0, 0.4335273206233978, -0.1294987052679062, -0.06605260819196701, 0.0, -0.05841001868247986, 0.0, -0.07025357335805893, 0.01702956110239029, 0.0, 0.0, -0.021741854026913643, 0.05998621881008148, -0.047359224408864975, 0.0, 3.2694058418273926, 0.35502761602401733, -0.026289405301213264, -0.06600482016801834, -0.155515655875206, 0.018413733690977097, 0.017709750682115555, -0.0033751898445189, -0.0015795498620718718, 0.25082719326019287, 0.0, -0.029839567840099335, 0.10386135429143906, 0.0, -0.0034976457245647907, 0.0, 0.0, 0.0, -0.04223185032606125, 0.0, -0.0050863283686339855, 0.0, -1.4266616106033325, -0.06525244563817978, -0.02895309031009674, 0.0, -0.0787234753370285, -0.003833000548183918, 0.0, 0.8290770053863525, 0.0, 0.0, -0.009162364527583122, 0.0, -0.061564892530441284, -0.015849735587835312, -0.2143458127975464, -0.0019411726389080286, 0.0, 0.0, -0.039225369691848755, -0.4249739646911621, 0.0, -0.028134731575846672, -0.022608675062656403, -0.01405874453485012, -0.06500326842069626, 0.0, 0.0, 0.0, 0.0, 0.0, 0.3692818284034729, 0.4105781316757202, 0.0, -0.04979975149035454, -0.19342686235904694, -0.024218132719397545, 0.11277207732200623, -0.005207136273384094, 0.03851001709699631, -0.010223536752164364, 0.04170309752225876, 0.0, -0.03212336450815201, -0.002398943994194269, 0.0, 0.0, 0.0, 0.14472071826457977, -0.0014359480701386929, 0.04028916731476784, -0.02253689616918564, 0.11187492311000824, 0.0, 0.645984411239624, 0.0, -0.19940413534641266, 0.0, 0.0, -0.05367515981197357, -0.03132593631744385, 0.2269231081008911, 0.2367630898952484, -0.0012465028557926416, -0.08882831037044525, -0.0982758179306984, 0.0, 0.0, 0.0, -1.1479917764663696, -0.012805094942450523, 0.0, -0.08372864127159119, 0.0, 0.0, 0.0, -0.021043233573436737, 0.0, -0.004244064446538687, 0.0, 0.08513256162405014, 0.0, 0.0, 0.0, 0.19203393161296844, -0.03359057009220123, -0.16703008115291595, 0.19635464251041412, 0.0, -0.0014254499692469835, 0.0, 0.0, -0.002061512554064393, 0.0, 0.45795148611068726, -0.01340231578797102, 0.048872411251068115, -0.0139737818390131, -0.01171696837991476, -0.0038376720622181892, -0.635791540145874, 0.037511467933654785, 0.0, 0.0, 1.5029609203338623, -0.031611084938049316, 0.047763362526893616, 0.6290426850318909, -0.04300779476761818, -0.049179159104824066, 0.35478198528289795, 0.0, -0.04811655730009079, 0.0, -0.04390996694564819, -0.016232866793870926, -0.054314352571964264, -0.0017327291425317526, 0.4651530385017395, -0.11862650513648987, 0.0, -0.04979975149035454, -0.006690174341201782, -0.16776913404464722, -0.06015491113066673, -0.001873497967608273, 0.0, 0.0, 1.3298780918121338, 0.0, -0.020562447607517242, -0.005009620916098356, -0.019777145236730576, 0.0, 0.0, 0.0, 0.0, 0.0, 1.5832111835479736, -0.09161635488271713, -0.14482101798057556, 0.0, 0.13090914487838745, 0.0, -0.9453207850456238, 0.0, 0.0, 0.0, 0.0, -0.20559252798557281, 0.017521940171718597, 0.06187930703163147, 0.10405106097459793, 0.15922416746616364, -0.00916401669383049, 0.0, -0.12659679353237152, -0.05721423774957657, 0.0, 0.0, 0.0, -0.0033015436492860317, 0.0, 0.0, -0.010778144933283329, -0.017526060342788696, 0.0480208583176136, -0.018541036173701286, 0.0, -0.06706846505403519, -0.022400323301553726, -0.09178540110588074, 0.0, -0.0008680184837430716, -0.2824352979660034, -0.05763740465044975, 0.0, 0.2732163071632385, 0.13579021394252777, 0.0, 0.088401198387146, 0.05821358039975166, 0.0, 0.0, 0.4372636675834656, 0.13737399876117706, 0.0, 0.0, -0.0021191176492720842, -0.18292216956615448, -0.26328590512275696, 0.12403519451618195, -0.12135244160890579, 0.32637420296669006, -0.0018388874595984817, 0.0, 0.0, 0.0, 0.0, -0.012902526184916496, -0.004593719728291035, -0.007988733239471912, 0.0, 0.0, -0.0036696395836770535, 0.037234850227832794, 0.0, -0.001182420994155109, 0.0, 0.0, 0.5441035628318787, 0.19340041279792786, -0.04959346354007721, -0.04891243577003479, -0.011934132315218449, 1.2409694194793701, -0.009659413248300552, 0.04354270175099373, 0.0, 0.0, 0.0, 0.0, 0.6983544826507568, 0.5810108780860901, 0.13195958733558655, 0.0, 0.004089290276169777, 0.03674914687871933, -0.04252984747290611, 0.0, 0.0, -0.061564892530441284, -0.06311726570129395, 0.0, 0.0, 0.0, 0.0, -0.018056420609354973, -0.14479291439056396, -0.0228528194129467, -0.02877313271164894, 0.0, -0.007771050091832876, -0.03879396989941597, -0.004873387515544891, 0.0, 0.001730583026073873, 0.0, -0.011499663814902306, -0.07318339496850967, -0.0663902759552002, 0.15600067377090454, 0.0, 0.0, 0.18463532626628876, 0.3447563350200653, -0.17348125576972961, 0.6889972686767578, 0.0, -0.03212336450815201, -0.005730449687689543, 0.0, 0.0, -0.02200002782046795, 0.30558428168296814, -0.16901838779449463, 0.0, -0.0976373478770256, 0.0, -0.009469018317759037, -0.035139743238687515, 0.10152588039636612, 0.0, -0.06482334434986115, -0.031525034457445145, 0.0, 0.0, 0.0, 0.0, 0.30342331528663635, 1.6959635019302368, 0.0, 0.0, 0.0, -0.02972891554236412, 0.1170634925365448, -0.14961698651313782, -0.05018901452422142, 0.0, -0.03911517187952995, 0.0, -0.03837164118885994, 0.0, -0.10490478575229645, 0.0, 0.07741998136043549, 0.22147873044013977, -0.014520320110023022, -0.5931203961372375, 0.0, 0.0, -0.5028013586997986, 0.0, -0.005009620916098356, 0.0, -0.025838566944003105, 0.22766265273094177, -0.0036918327677994967, 0.0, -0.01685350015759468, 0.0, -0.07348591834306717, 0.00892140343785286, -0.07974399626255035, 0.0, -0.06218631938099861, 0.0, 0.0, 0.0, -0.07323634624481201, -0.215786412358284, 0.04213074594736099, 0.0, 0.0, -0.05254422128200531, 0.0, 0.0, 0.40138283371925354, 0.0, 0.0, 0.10488079488277435, 0.45139509439468384, 0.0, 0.15577994287014008, 0.0, 0.1196037232875824, -0.007015105336904526, 0.2108452022075653, 0.0, -0.058785580098629, 0.0, -0.003273417940363288, 0.0, -0.001850957632996142, -0.021289683878421783, -0.28181472420692444, 0.0, -0.0025702607817947865, 0.9119482040405273, 0.0, -0.0004690345376729965, 0.0, 0.0, 0.06879576295614243, -0.11496397107839584, 0.0, -0.0025476920418441296, 0.0, -0.0012340587563812733, 0.0, -0.006558715831488371, -0.20270811021327972, 0.0, -0.04763290658593178, -0.41117846965789795, -0.5798458456993103, 0.0, -0.09907641261816025, -0.02284168265759945, 0.0, 0.07314533740282059, 0.0, -0.022259484976530075, -0.00848670769482851, 0.0, 0.0, 0.11331696063280106, 0.8234941363334656, -0.6762855052947998, 0.0, 0.0, -0.18091878294944763, -0.007721723057329655, -0.05924288183450699, -0.0018966324860230088, 0.0, -0.0317622646689415, 0.0, 0.5509057641029358, -0.6598770022392273, -0.07711299508810043, 0.0, 0.3802792429924011, 0.022270776331424713, 0.7417148351669312, -0.07881312817335129, -0.009469018317759037, 0.0, 0.0, 0.2613622546195984, 0.12261418998241425, 0.0, 0.0, -0.05915924161672592, 0.0, 0.563374936580658, 0.0, 0.018501901999115944, 0.0, -0.009649732150137424, 0.0, 0.06007038429379463, -0.10084003955125809, 0.0, 0.0, -0.06732078641653061, -0.18446750938892365, 0.10361234098672867, 0.5815489888191223, -0.11025921255350113, -0.06858279556035995, 0.9393572807312012, 0.1536022424697876, 0.3506756126880646, 0.0, -0.004815107677131891, -0.025689393281936646, -0.002488261554390192, 0.16614334285259247, 0.36935922503471375, 0.0, 0.4044256806373596, -0.011685902252793312, -0.24916504323482513, 4.3083953857421875, 0.0, 0.3207962214946747, 0.0, -0.02143058553338051, 0.0, 0.0, 0.0, 1.1815146207809448, 0.5438114404678345, -0.09377194941043854, -0.0372464582324028, 0.2858942747116089, -0.063811294734478, 0.0, 0.0, -0.19401422142982483, -0.16703888773918152, 0.0831104964017868, -0.09036101400852203, -0.07168537378311157, 0.0, 0.33927223086357117, 0.0, 0.0, 0.0, -0.3268754184246063, -0.019765552133321762, 0.0, -0.14818020164966583, 0.0, 0.04732751473784447, 0.0, 0.0, 0.0, 0.0, 0.0005733654252253473, 0.010108786635100842, -0.00897938571870327, 0.0, -0.03490231931209564, 0.04842804744839668, -0.22259606420993805, 0.3708574175834656, 0.10041115432977676, 0.28477904200553894, 0.0, -0.11724571138620377, -0.004159075673669577, 0.0, 0.2352343499660492, -0.1001531109213829, -0.0005647962098009884, -0.01617484726011753, -0.00045251494157128036, 0.019580485299229622, -0.08553582429885864, 0.0, 0.023177314549684525, -0.460740327835083, -0.003881205804646015, 0.0, 0.0, 0.0, 0.015987373888492584, 0.0, 0.0, 1.4659193754196167, 0.0, 0.0, -0.0015727493446320295, 0.0, 0.0, 0.0, -0.08367854356765747, 0.09648142009973526, 0.365635484457016, -0.035441651940345764, -0.16902905702590942, -0.11950001865625381, 0.10651695728302002, -0.07932770252227783, -0.05594220012426376, -0.20935523509979248, 0.0, 0.0, 0.036524370312690735, 0.0, -0.038180120289325714, 0.4043177366256714, 0.11549406498670578, 0.0, 0.2925151586532593, 0.18702876567840576, 0.0, -0.01173740066587925, 1.4022129774093628, 0.11707929521799088, 0.30118846893310547, 0.3649612069129944, -0.3920839726924896, 0.09232474118471146, 0.11309028416872025, -0.0016715556848794222, -0.015170305036008358, -0.0012340587563812733, -0.012861847877502441, 0.0, -0.012386239133775234, 0.0, 0.07191004604101181, 0.09088112413883209, -0.004658333957195282, 0.0, -0.14202377200126648, 0.12372700124979019, 0.0, -0.012666450813412666, 0.0, 0.17526167631149292, 0.0, 0.0014673741534352303, -0.027660051360726357, 0.03126251697540283, 0.0, 0.0, 0.03169434517621994, 0.0, 0.0, 0.0, -0.04532916098833084, 0.0, 0.0, 0.0, 0.30202677845954895, 0.0, -0.17557980120182037, -0.06798668205738068, 0.0, -0.014882352203130722, -0.18311738967895508, -0.004950397647917271, -0.006703343708068132, 0.04363467916846275, 0.0, 0.7672415971755981, 0.0, -0.8105522990226746, -0.10624668002128601, -0.002541735302656889, -0.009297098964452744, 0.1526733785867691, 0.0, -0.08877180516719818, 0.7343120574951172, -0.004037489183247089, -0.06506076455116272, 3.6676039695739746, 0.0, 0.0, 0.34864041209220886, 0.2750127613544464, 0.0, 0.3052330017089844, -0.04510999843478203, -0.008962656371295452, -0.1288244128227234, -0.002343897009268403, -0.04095695912837982, -0.01716085709631443, 0.0, 0.018702788278460503, 0.0, -0.014266060665249825, -0.03993893414735794, -0.055717721581459045, -0.09195117652416229, -0.07576717436313629, 0.0012452714145183563, 0.0, -0.07344209402799606, -0.027630507946014404, -0.32278797030448914, 0.1143031120300293, 0.0, 0.0, 0.0, -0.009221013635396957, 0.0, 0.21074050664901733, -0.006427381653338671, 0.1629379838705063, -0.1713705211877823, 0.06984247267246246, 0.0, -0.018123557791113853, -0.07262368500232697, 0.0, 0.05199833959341049, 0.0, -0.007063091732561588, -0.17877958714962006, 0.36950382590293884, -0.053468264639377594, -0.008688955567777157, 0.20327436923980713, -0.015392137691378593, -0.03105510212481022, 0.18491198122501373, -0.0036883680149912834, 0.0, 0.0, 0.0, 0.0, 0.0, 0.7722967267036438, 0.0, -0.013678811490535736, 0.29126405715942383, 0.0, 0.0370824858546257, 0.0, 0.29871219396591187, 0.00801457092165947, 0.003932793624699116, 0.07312402874231339, -0.4656699001789093, 0.0, -0.07593969255685806, -0.570267379283905, -0.028401533141732216, -0.010263939388096333, 0.0, 0.2904703617095947, 0.0, 0.6144933700561523, 0.0, 0.2792370021343231, 0.0, -0.012345985509455204, 0.0, 0.0, 0.0, -0.009554470889270306, 0.19697359204292297, 0.0, -0.05634690076112747, 0.0, 0.09481791406869888, 1.5914491415023804, 0.0, -0.04100465402007103, -1.1645792722702026, -0.008071576245129108, 0.0, 0.0, 0.0, -0.11074169725179672, -0.006121354177594185, -0.012788894586265087, 0.0, -0.006983042694628239, 0.0, -0.0577704980969429, 0.0, -0.007580761797726154, 0.01768019050359726, 0.07009420543909073, 0.0, 0.0, 0.9177060127258301, -0.012170100584626198, 0.2147950828075409, 0.08671116828918457, 0.02412877045571804, 0.0, 0.0, -0.017728151753544807, -0.0988728255033493, 0.0, -0.05180767923593521, 0.0024297423660755157, 0.0, -0.01376064121723175, 0.0, -0.005864045582711697, 0.0, -0.11164582520723343, 0.18561501801013947, 0.0, 0.013812241144478321, 0.4483250081539154, 0.22380760312080383, 0.0, -0.01507201325148344, -0.17556801438331604, 0.0, 0.0, 0.010673443786799908, -0.060183312743902206, 0.0, -0.026800040155649185, 0.13571275770664215, -0.0009464352042414248, 0.0, -0.008281489834189415, 0.176662415266037, 0.20188742876052856, 0.0, 0.0, -0.1435231864452362, 0.0, -0.025851260870695114, 0.0, 0.45821571350097656, -0.05793703719973564, 0.5453945994377136, -0.02284323237836361, 0.0, -0.5952309966087341, 0.0, 0.23294349014759064, 0.7840564250946045, -0.10646729171276093, 0.07130587846040726, -0.01728852093219757, 0.0, -0.11743798106908798, 0.0, -0.024746011942625046, 0.01949227787554264, 0.3364533483982086, 0.0, 0.0, -1.6888710260391235, 0.0, 0.0, 0.0, 0.1106361672282219, -0.008181169629096985, 0.0, 0.01280455943197012, 0.7178694009780884, -0.029408985748887062, 0.7422735095024109, -0.00888806488364935, 0.0, 0.0, 0.2938351333141327, 0.0, 0.0, 0.0, -0.2806999385356903, 0.0, 0.0, -0.05595512315630913, -0.36870720982551575, -0.04397490620613098, 0.0, 0.129814013838768, 0.0, -0.02218894474208355, -0.006487415172159672, -0.9841904044151306, -0.0913182869553566, 0.0, 0.0, 0.13794729113578796, -0.06427643448114395, -0.03281640261411667, 0.0, -0.06058242544531822, 0.0, -0.0005177184357307851, 0.012223920784890652, 0.0, 0.0, -0.01824219338595867, -0.0049523962661623955, -0.02660457231104374, 0.0, 0.0, -0.13314594328403473, 0.0, 0.0, -0.08414363861083984, -0.036412522196769714, 0.0, -0.13529661297798157, 0.0, -0.0024156582076102495, 0.0, 0.0, 0.0, 0.0, -0.15105785429477692, 2.005527973175049, -0.024026425555348396, 0.08529764413833618, 0.0, 0.032970741391181946, 0.0, 1.1770946979522705, -0.04207255691289902, -0.027583664283156395, 0.0, 0.7443792819976807, 0.04241595417261124, -0.2142380028963089, 0.0, 0.0, -0.14013223350048065, -0.26911038160324097, -0.04579076170921326, 0.9118105173110962, 0.2312757819890976, 0.0, -0.018087737262248993, -0.005392234772443771, -0.02646530605852604, 0.40824636816978455, 0.28563547134399414, -0.5600870847702026, -0.0015512544196099043, 0.5702705383300781, 0.0, 0.0847853273153305, 0.0, -0.0011913931230083108, -0.020550981163978577, -0.0028347282204777002, 0.0, -0.00634485250338912, 0.0, 0.01952826790511608, -0.02168162725865841, 0.0, 0.0, 0.0, -0.015872716903686523, 0.0, 0.0, 0.0, -0.01347602903842926, -0.6743442416191101, -0.016709689050912857, -0.03690539300441742, 0.0, 0.0, 0.08891087770462036, 0.0, 0.0, 0.3213309049606323, -0.007843644358217716, 0.0, 0.0, -0.03083987534046173, -0.0034976457245647907, 0.0, 0.0, 0.0, 0.0, -0.013943781144917011, 0.0, 0.09262675046920776, 0.0, 0.0, -0.2102058082818985, 0.0, 0.0, 0.0, 0.0, -0.009720358066260815, -0.04520474374294281, 0.0, -0.008756990544497967, 0.0, 0.16666272282600403, 0.0, -0.007876853458583355, -0.018186267465353012, -0.0801098570227623, -0.09109609574079514, -0.23906372487545013, 0.08709652721881866, -0.0114433653652668, -0.025402214378118515, -0.12071255594491959, -0.06341119855642319, -0.061564892530441284, -0.0008680184837430716, 0.0, 0.3142012059688568, -0.05281749740242958, -0.028257697820663452, 0.0, 0.02065991424024105, -0.022479593753814697, 0.0, -0.013950172811746597, 0.0, 0.0, -0.05275887995958328, -0.01170792430639267, -0.06737116724252701, 0.0, -0.038739364594221115, 0.048427075147628784, -0.006726202555000782, 0.0, 0.0, 0.0, 0.20144802331924438, 0.0, 0.0, -0.036603014916181564, 0.0, 0.04809081181883812, 0.6113530993461609, 0.0, 0.0, 0.0, 0.0, 0.0, 0.0, -0.03027617558836937, 0.1318357288837433, 0.05389975383877754, -0.0070548891089856625, 0.12799276411533356, 0.14444556832313538, -0.005756935570389032, 0.0, 0.013812241144478321, 0.0, 0.22554661333560944, -0.1295538693666458, 0.0, 0.0, 0.0, -0.012712289579212666, -0.010603494010865688, -0.024004805833101273, 0.2875436246395111, 0.0, 0.0, 0.0, -0.06659352779388428, 0.0, 0.044123243540525436, 0.0, 0.0, 0.0, -0.042514923959970474, 0.0, 0.0, 0.0, -0.012707994319498539, -0.015769533812999725, 0.0, -0.03733666613698006, 3.2367677688598633, 0.0, 0.0, -0.04229756072163582, -0.006702903192490339, 0.0, -0.11372072994709015, 0.0, 1.2680130004882812, -0.220841646194458, 0.0, 0.0, -0.028244465589523315, -0.010172685608267784, 0.08100957423448563, -0.017467327415943146, 0.026729455217719078, -0.0925089418888092, 0.0722217708826065, 0.02769700065255165, 0.0, 0.8396764397621155, 0.0, 0.14450229704380035, 0.2247432917356491, 0.0, -0.3582601547241211, -1.0977356433868408, 0.0, 0.14391450583934784, 0.19208188354969025, -0.1125665009021759, 0.0, -0.006298147141933441, -0.0314655564725399, 0.0, -0.01111777313053608, 0.060529034584760666, 0.6218717098236084, 0.0, 0.7618396282196045, -0.00648350827395916, -0.02597474306821823, 0.0, -0.03206799179315567, 0.0008471632609143853, -0.10020104050636292, 0.0, -0.015013965778052807, 0.5134581327438354, 0.0, -0.007988733239471912, -0.0023993495851755142, -0.05787549167871475, 0.0, 0.46100103855133057, -0.0374012291431427, 0.0, 0.0, 0.0, 0.12526297569274902, 0.0, -0.05357397347688675, 0.0, 0.0, -0.021580558270215988, -0.07022552937269211, -0.5868744254112244, 0.0, 0.0, 0.0, 0.03778582811355591, 0.4373929500579834, -0.01405874453485012, -0.10314275324344635, 0.0, -0.041828833520412445, -0.046799417585134506, 0.0, 0.0, 0.0, -0.0028347282204777002, 0.0, 0.0, -0.04137721285223961, -0.6717163324356079, -0.045641764998435974, 0.07049499452114105, -0.3286799192428589, -0.01009609829634428, 0.0, 0.0, -0.8090716600418091, 0.10762089490890503, 0.0, 0.0, -0.056062135845422745, -0.009594051167368889, 0.3154638707637787, 2.3067402839660645, -0.0065111201256513596, 0.0, 0.0, 0.0, 0.30508092045783997, 0.0, 0.0, 0.0, -0.02274014800786972, -0.17817552387714386, 0.0, 0.0, 0.0, 0.0, -0.022608675062656403, 0.0, 0.31379666924476624, 0.0, -0.00175905239302665, 0.0, 0.04711124300956726, 0.15438485145568848, 0.0, 0.0, 0.0, -0.012954173609614372, 0.0, -0.03216675668954849, 0.0, 0.0, -0.04245511442422867, -0.02183455415070057, 0.0, 0.0, 0.0, 0.0, 0.0, -0.00019597605569288135, 0.1617714762687683, -0.02063269168138504, 0.04475459083914757, -0.018504401668906212, 0.14016756415367126, -0.003153149038553238, -0.12965978682041168, 0.0, -0.025648992508649826, 0.0, 0.0, -0.03098948299884796, -0.041981179267168045, -0.02017616294324398, -0.05993800610303879, -0.013552624732255936, 0.0, -0.1596934050321579, 0.4958355128765106, -0.01494976133108139, -0.002764183795079589, 0.0, 0.0, 0.0, 0.0, -0.016630996018648148, -0.009562164545059204, 0.0, -0.05066133290529251, 0.0, 0.01750108413398266, 0.0043429359793663025, -0.0026912796311080456, 0.1366557627916336, -0.012153372168540955, 0.0, 0.0, 0.0, 0.2101561427116394, -0.10053195059299469, 0.07173179090023041, -0.05440244451165199, 0.12927396595478058, 0.0, 0.0, 0.5162634253501892, -0.05743084475398064, 0.0, 0.0, 0.0, 0.0, -0.1851169914007187, 0.0, 0.5914455652236938, 0.2240600436925888, 0.0, -0.1485305279493332, 0.5993138551712036, -0.0007662546122446656, 0.0, 0.001215115305967629, -0.016911908984184265, -0.060320254415273666, -0.06254272907972336, -0.00406235596165061, 0.0, -0.014403996989130974, 0.0, -0.05935167148709297, 0.0, 0.0, 0.42456308007240295, -0.18728147447109222, -0.12290250509977341, 0.0, -0.05103432759642601, 0.03618841618299484, 0.0, 0.3557504713535309, 0.41347619891166687, 0.6861035227775574, 1.5079224109649658, 0.0, 0.0, -0.3176804184913635, 0.0, 0.0, 0.0, 0.4081977903842926, 0.0, -0.5340614318847656, 0.0, -0.01094293873757124, 0.0, -0.06761962175369263, 0.6556081771850586, -0.005443013738840818, 0.0, 0.0012893350794911385, -0.002660096623003483, -0.021219629794359207, 0.0, 0.0, 0.0, 0.0, 0.0, 0.03554875776171684, -0.009775806218385696, -0.004159075673669577, -0.043974507600069046, -0.0007662546122446656, 0.006382750812917948, 0.0, -0.1757897436618805, 0.0, 0.40064737200737, 0.0, 0.0, -0.014856123365461826, -0.0005955431843176484, 0.0, -0.11484068632125854, 0.0, 1.4722720384597778, 0.0, 0.3279552161693573, -0.11096102744340897, 0.0, 0.0, 0.0, -0.0017438019858673215, 0.0, -0.028297193348407745, 0.0, -0.09757537394762039, 0.0, 0.0, 0.07062660157680511, 0.0, 0.0, 0.0, -0.0014110864140093327, 0.055031053721904755, -0.006164831109344959, -0.0017438019858673215, 0.15690667927265167, 0.0, -0.3700430691242218, -0.009692354127764702, -0.005604230798780918, 0.11224623769521713, 0.35673287510871887, 0.0, -0.02787178009748459, 0.0, 0.0, 0.0, 0.0, -0.007650559302419424, 0.0, 0.0, 0.0, 0.0, -0.024713458493351936, -0.004831431899219751, 0.0, 0.0, 0.7284485101699829, 0.0, 0.0, 0.0, 0.0, 0.0, 0.0974792018532753, 0.0, -0.023694854229688644, 0.014506794512271881, -0.0031447005458176136, 0.0, -0.01364497747272253, 0.0, -0.0032683988101780415, 0.5827291011810303, -0.01335433404892683, -0.12182554602622986, 0.03513050824403763, 0.04987896606326103, 0.0, 0.0, -0.009046636521816254, 0.0, 0.0, -0.34065815806388855, 0.0, -0.0005312940920703113, -0.0037452997639775276, -0.0006883640307933092, 0.0, -0.01361303124576807, -0.24203017354011536, 0.0, -0.011223246343433857, 0.0, 0.0, 0.0, -0.23043756186962128, -0.06177866458892822, -0.06757635623216629, 0.03683625906705856, 0.0, -0.01007299404591322, 0.03080306388437748, 0.2944571375846863, -0.01659231260418892, -0.001077101449482143, -0.014950861223042011, 0.616982102394104, 0.0, -0.012307156808674335, 0.0, 0.0, -0.2228192538022995, 0.0, -1.4743229150772095, -0.22720842063426971, -0.06586739420890808, 0.0, 0.0, 0.0, 0.0, 0.0, 0.0, -0.05036133900284767, 0.0, 0.17301638424396515, 0.0, 0.0006328614545054734, -0.04640332981944084, -0.1395168900489807, -0.0006124097271822393, 0.0, -0.003683707443997264, 0.3291049003601074, 0.0, 0.0, 0.0, 0.0, 0.0, 0.0, 0.1301877349615097, -0.17641611397266388, -0.015250434167683125, 0.0, 0.0, 0.4968302845954895, 0.0, -0.007715999148786068, -0.00723535381257534, 0.0, 0.0, 0.0, -0.011726613156497478, 0.0, 0.15013766288757324, 0.0, 0.0, 0.1379452347755432, 0.0, -0.4643039107322693, 0.12661905586719513, -0.030879411846399307, 0.2538950741291046, 0.0, -0.020491698756814003, -0.10240143537521362, -0.061564892530441284, 0.02817571721971035, 0.0, 0.7598123550415039, 0.0, -0.003553357906639576, 0.0, -0.17691996693611145, 0.3553819954395294, -0.02154350094497204, 0.0, -0.11381753534078598, 0.0, -0.046579983085393906, 0.0016092974692583084, 0.08098731935024261, 0.35334697365760803, 0.21098269522190094, 0.02156427875161171, 0.0, -0.2159479409456253, -0.015444586984813213, -0.015913095325231552, 0.0, 0.0, 0.07407840341329575, 0.14014610648155212, 0.0, -0.15830332040786743, 0.0, 0.0, -0.051962271332740784, -0.03268761560320854, -0.004636965226382017, 0.0, 0.0, 0.0, -0.000689001870341599, 0.0, 0.0, -0.12312978506088257, 0.07915790379047394, 0.005149879492819309, 0.0, -0.0877513512969017, -0.12991032004356384, -0.021517600864171982, -0.025125036016106606, -0.17041216790676117, -0.14407916367053986, -0.8358985781669617, -0.10305076092481613, 0.03109920397400856, 0.09603238850831985, -0.3254847228527069, 0.3703170120716095, 0.0, 0.14219799637794495, 0.192424014210701, 0.0, 0.0, -0.0037661774549633265, -0.0015705625992268324, 0.32573381066322327, 0.0, 0.7989930510520935, -0.0045579723082482815, -0.0020153941586613655, -0.02074892446398735, 0.0, -0.014817394316196442, -0.000680846453178674, -0.012574968859553337, 0.056360311806201935, 0.0, 0.11059023439884186, 0.0, -0.051620904356241226, 0.07880228012800217, -0.012666450813412666, 0.0, 0.2426542490720749, -0.04943537712097168, -0.05074966326355934, -0.7704318165779114, -0.01521445531398058, 0.16514083743095398, 0.1663493663072586, -0.0028575086034834385, 0.04320375621318817, -0.013813655823469162, 0.0, -0.043372590094804764, 0.0, 0.0, 0.0, -0.014362719841301441, 0.0, -0.031444016844034195, 0.0, -0.16062527894973755, -0.03160761669278145, -0.006520026829093695, 0.0, -0.06852132081985474, 0.07287465780973434, 0.0, 0.0, 0.0, 0.0, -0.1616566777229309, 0.0, 0.0, 0.0, -0.029707763344049454, 0.0, -0.595893383026123, 0.9129958748817444, 0.0, -0.005788309965282679, -0.041463177651166916, -0.27783599495887756, 0.0, 0.0, -0.030704224482178688, 0.31474795937538147, 1.1697523593902588, 0.0, -0.11554129421710968, 0.0, -0.14381864666938782, -0.582261860370636, -0.0007790207746438682, 0.0, 0.0, -0.007243117317557335, -0.04252984747290611, -0.004383513703942299, -0.03132149204611778, 0.0, -0.29687929153442383, 0.05360804870724678, 0.0, -0.01494976133108139, -0.0008824725518934429, 1.074095606803894, 0.37995490431785583, 0.0, 0.0, 0.0, 0.0, -0.09490778297185898, 0.24738425016403198, 0.0, 0.7806248068809509, 0.07567007839679718, 0.0, 0.48983293771743774, -0.016121601685881615, -0.22801071405410767, -0.002864379435777664, 0.0, -0.00045251494157128036, 0.0, 0.0, -0.02191394381225109, 0.0, -0.017749110236763954, 0.0, 0.0, -0.10957004874944687, 0.0, -0.00882392842322588, 0.08877796679735184, -0.20559053122997284, 0.0, 0.0, -0.2839951515197754, 0.024637004360556602, 0.0, 0.04809081181883812, -0.001732991193421185, 0.0, 1.029877781867981, 0.0, 0.0, -0.013837086968123913, 0.0, 0.0, 0.0, 0.0, 0.0, -0.017474615946412086, 1.1138625144958496, 0.0, 0.0, 0.06007038429379463, -0.19009004533290863, 0.12854690849781036, 0.0, 0.02571137063205242, -0.07344592362642288, -0.0070501998998224735, -0.10838431119918823, 0.0, -0.14416109025478363, 0.0, -0.023124178871512413, -0.027240365743637085, -0.042610324919223785, 2.6119043827056885, -0.024094821885228157, 0.0, 0.38329872488975525, 0.0, -0.0590771809220314, 0.0, -0.021219629794359207, 0.9217844605445862, 0.0, 0.0, -0.025790592655539513, 0.0, 0.8485035300254822, -0.11801192164421082, 0.01768019050359726, 0.23222137987613678, -0.19508565962314606, 0.0, -0.08516646921634674, -0.2656877636909485, 0.0, -0.020913368090987206, 0.0, -0.00899125263094902, 0.0, 0.18854963779449463, -0.07998050004243851, -0.0016287615289911628, 0.0, 0.04514629766345024, 0.1246122270822525, 0.0, -0.01171696837991476, -0.11290842294692993, 0.3473486602306366, 0.0, 0.0, -0.05958763137459755, 0.07245498895645142, 0.0, 0.0, 0.0, -0.005392234772443771, -0.0007190598989836872, 0.0, 0.0, -0.02820141427218914, 0.0, 0.0, -0.022496942430734634, 0.18329788744449615, -0.009559223428368568, 0.0, -0.0036594688426703215, 0.10126982629299164, 0.0, -0.0445675291121006, 0.22616176307201385, -0.0580151192843914, 0.0, 0.39978453516960144, 0.09300994873046875, 0.0, -0.09724733978509903, 0.2167767435312271, -0.2909730076789856, -0.24788232147693634, 0.0, -0.38248366117477417, 0.0, -0.000680846453178674, 0.5446231365203857, -0.4655725359916687, -0.10320194810628891, -0.4649622142314911, -0.045189060270786285, 0.0, -1.6232479810714722, -0.005443013738840818, 0.0, 2.797001361846924, 0.0, 0.06534605473279953, 0.0, 0.3285568654537201, -0.025331193581223488, 0.3460599184036255, 0.043929342180490494, -0.09268853068351746, 2.0951294898986816, 1.7756003141403198, -0.018406718969345093, 0.9617077112197876, -0.31993114948272705, -0.404751718044281, -0.014250361360609531, -0.12391631305217743, 0.0, 0.05588582530617714, 0.0, -0.08534323424100876, 0.0, 0.0, 0.0, 0.0, 0.0, -0.050168827176094055, -0.03519727289676666, 0.0, -0.0077874013222754, 0.0, -0.2306557297706604, -0.0275272224098444, -0.004292186349630356, 0.0, 0.27797114849090576, 0.0, -0.026084870100021362, 0.0, 0.04986243695020676, -0.03279798477888107, 0.0, -0.038507018238306046, -0.003701788140460849, -0.1181357353925705, -0.0005177184357307851, 0.08731880784034729, 0.0, 0.004877802915871143, 0.0, 0.0, 0.0, 0.08470344543457031, 0.5135901570320129, -0.031378213316202164, 0.0, 0.0, -0.017484150826931, 0.08150270581245422, -0.021214650943875313, 0.0, -0.020305445417761803, -0.007843644358217716, -0.14781519770622253, 0.0, 0.8807514309883118, 0.0, -0.012643394060432911, 0.0, 0.0, 0.0, 0.0, 0.09231651574373245, 0.0, 0.13539879024028778, -0.05995321273803711, 0.04263853281736374, 0.5660676956176758, -0.04719213396310806, 0.0, 0.03947234898805618, -0.03359057009220123, 0.0, 0.0, 0.0, -0.0030378494411706924, 0.0, 0.016274623572826385, 0.0, 0.0, 0.14685572683811188, -0.09568329155445099, 0.13229089975357056, -0.020640559494495392, 0.2752615511417389, 0.028312446549534798, -0.008736083284020424, 0.0, -0.0007730704382993281, -0.0010149329900741577, 0.5342350602149963, -0.009366677142679691, -0.024746011942625046, 0.0, 0.9409434199333191, 0.36736440658569336, 0.0, 0.2597181499004364, 0.0, 0.0, -0.016774015501141548, 0.0, -0.00022752680524718016, 0.18046565353870392, 0.0, 0.0, 0.0, 0.0, -0.16615460813045502, -0.022226138040423393, 0.0, -0.1862669587135315, -0.0542035773396492, -0.005818722769618034, 0.0, 0.0, -0.04289834946393967, 0.015274294652044773, 0.0, -0.011899925768375397, -0.22255155444145203, -0.264769971370697, -0.00834580697119236, -0.7375693917274475, 0.7106138467788696, 0.02476230449974537, 0.035978544503450394, 0.0, -0.0011128340847790241, 1.0663506984710693, 0.0, -0.04470932111144066, 0.0, 0.0, 0.0, -0.013662898913025856, -0.04763290658593178, -0.04514676332473755, 0.0, 0.35170844197273254, -0.027179058641195297, 0.0, 0.0904419869184494, 0.21942324936389923, -0.5144661664962769, -0.015587094239890575, -0.007015105336904526, -0.2093425989151001, -0.022664476186037064, 0.0, -0.015390697866678238, 0.23019637167453766, -0.008249951526522636, 0.04807707667350769, 0.23639757931232452, -0.13708750903606415, 0.0, 0.11844462901353836, 0.15144255757331848, -0.11808087676763535, -0.10411533713340759, -0.10838255286216736, 0.0, 0.03593029826879501, -0.004428157117217779, 0.0, 0.0, 0.0, 0.4951702952384949, 0.22949133813381195, 0.0, 0.0, -0.08648737519979477, 0.048427075147628784, 0.0, 0.0, -0.0355391688644886, 0.06967804580926895, 0.9522372484207153, 0.0, 0.0, -0.0027896517422050238, 0.0, -0.03188520297408104, 0.0, 0.19321633875370026, -0.00152961618732661, -0.03337310999631882, -0.0046284738928079605, 0.0, -0.00679211039096117, 0.03513050824403763, -0.11028841137886047, 0.0, 0.0, 0.10755456238985062, 0.004786109086126089, 0.0, 0.22716403007507324, 0.0, 0.0, -0.012226353399455547, -0.018960021436214447, -0.6370856165885925, 0.004915014375001192, 0.0639079362154007, -0.17809827625751495, 0.0, 0.0, 0.0, 0.03264116123318672, -0.004337242338806391, 0.10755456238985062, -0.030269021168351173, 0.9422202110290527, 0.0, -0.10483686625957489, 0.0, 1.5133693218231201, 0.0, 0.0, 0.0, -1.0091063976287842, -0.012406890280544758, 0.0, -0.005843059159815311, 0.0, -0.00012018078996334225, 0.0, -0.03729703649878502, 0.0, 0.0, -0.00991989765316248, 0.0, 0.0, 0.0, -0.027897123247385025, 0.0, 0.0, 0.0, -0.0012340587563812733, -0.412637859582901, 0.0, 0.0, 0.0, 0.2743552625179291, -1.1464293003082275, -0.012801747769117355, -0.21517100930213928, -0.0015361104160547256, 0.41575363278388977, 0.4397602379322052, -0.023759931325912476, -0.030161673203110695, -0.1092417761683464, 0.0, 0.0, 0.07587151229381561, 0.0, -0.014021536335349083, 0.11400122940540314, 0.23116426169872284, -0.01851833239197731, -0.016360566020011902, -0.0638042464852333, 0.0, 0.0, -0.01051313802599907, 0.027014166116714478, -0.10444095730781555, -0.1739940494298935, -0.21672174334526062, -0.015250434167683125, 0.0, -0.012904942035675049, 0.0, -0.035136424005031586, 0.0, 0.0, -0.08267278969287872, -0.009162364527583122, 0.0, 0.0, -0.009551881812512875, 0.0, 0.0, 0.14731654524803162, -0.7303368449211121, -0.02523273415863514, 0.0, 0.0, 0.0, -0.03957177698612213, 0.0, 0.0, 0.0, 0.0, -0.07789863646030426, -0.019101422280073166, 0.0, -0.019511349499225616, 0.006646681111305952, -0.01117700058966875, -0.0114433653652668, -0.005566192325204611, -0.4481613039970398, 0.0, 0.12866821885108948, 0.0, -0.08557293564081192, 0.0, 0.0, 0.0, 0.0, 0.25399482250213623, 0.19701527059078217, 0.0, -0.056853752583265305, -0.03175714612007141, 0.05063767358660698, 0.0, 0.09066291898488998, -0.04697248712182045, -0.6057100296020508, 0.12993450462818146, 0.048152726143598557, 0.13070017099380493, 0.0, 0.0, 0.5188973546028137, -0.10711968690156937, 0.6295594573020935, -0.000728612532839179, -0.021741854026913643, 0.0, 0.22245129942893982, -0.1732977032661438, 0.05490625649690628, 0.2623356580734253, -0.2238636612892151, 0.0, 0.0, -0.6083800196647644, -0.02395152859389782, -0.0033094538375735283, -0.07714179903268814, -0.11070861667394638, 0.0, 0.0, -0.10106144100427628, -0.04157447814941406, 0.0, 0.0, -0.07670749723911285, 0.150332972407341, 1.4604939222335815, 0.0, 0.0, 0.0, 0.0, -0.01086473185569048, -0.013311793096363544, -0.00300616049207747, -0.07810013741254807, 0.04671121761202812, -0.0073350537568330765, -0.027408290654420853, 0.0, -0.061564892530441284, -0.3504835367202759, 0.0657360702753067, 0.2820124328136444, 0.08166337013244629, -0.5763145089149475, 0.0, 0.0, -0.04493323341012001, 0.0, 0.0, 0.10321737080812454, 0.0, 0.0, 0.0, -0.00440114364027977, 0.3839138448238373, -0.0032440684735774994, 0.132954403758049, 0.14259693026542664, 0.0, -0.019334137439727783, 0.006664983928203583, -0.08440237492322922, 0.793225884437561, -0.059463828802108765, -0.26975467801094055, 0.18765437602996826, 0.020387614145874977, 0.0200228001922369, 0.0, 0.0, -0.250817209482193, 0.0, 0.1997848004102707, 0.1933424472808838, -0.003734676167368889, -0.008028628304600716, 0.20956772565841675, 0.3193994164466858, -0.006823007948696613, 0.029652297496795654, 0.0, 0.0, 0.5241803526878357, 0.0, 0.17420949041843414, -0.03777675703167915, -0.005159426014870405, 0.0, -0.008264229632914066, -0.022131986916065216, -0.13837017118930817, 0.0, -0.06433273106813431, 0.0, 0.0, 0.026420509442687035, 0.2179187536239624, -0.021918943151831627, 0.0, -0.07185396552085876, -0.008673151023685932, 0.0, 0.0, 0.0, -0.12117832154035568, -0.5818217396736145, 0.1950831115245819, -0.05303194373846054, -0.016708675771951675, 0.0, 0.0, -0.0016986868577077985, 0.0, -0.05888755992054939, 0.0, 0.0, -0.09993709623813629, -0.005261411424726248, 0.0, 0.07832977920770645, 0.0, 0.0, 0.10302632302045822, 0.0, 0.45679575204849243, 0.1356784701347351, 0.0, 0.0, -0.00848670769482851, 0.0, 0.04387080296874046, -0.115923672914505, -0.0015255375765264034, -0.005094946827739477, 0.014586498960852623, 0.03890577331185341, -0.10650800168514252, 0.0, -0.010263939388096333, 0.0, 0.0, -0.0015376341762021184, -0.09150493144989014, 0.0, -0.0114433653652668, 0.0, -0.015872716903686523, 0.0, -0.027963466942310333, -0.008919453248381615, 0.32165661454200745, 0.0, 0.2392737716436386, -0.6035733819007874, -0.07153444737195969, -0.09836458414793015, -0.09974712878465652, 0.0, -0.1516103297472, 0.29970818758010864, 0.0, -0.1140855923295021, 0.0, 0.0, -0.081833116710186, -0.014021536335349083, 0.0, 0.02692236751317978, 0.03939433768391609, 0.0, -0.3680049479007721, 0.04164082929491997, 0.0, 1.0758236646652222, 0.08116526901721954, 0.04809081181883812, 0.0, 0.0, -0.4081798791885376, 0.0, 0.0, -0.04520300775766373, 0.0, 0.0, 0.0, 0.0, -0.004967374261468649, -0.3100995719432831, 0.05693182721734047, 0.09573842585086823, -0.02610917203128338, 0.0, 0.9124267101287842, 0.0, 0.021570540964603424, 0.0, -0.5934848785400391, -0.5973792672157288, 0.0, 0.0, 0.0, 0.0, 0.0, -0.0013397911097854376, 0.0, -0.185741126537323, -0.8247733116149902, -0.0020153941586613655, 0.0, 0.0, 0.0, 0.0, -0.010790751315653324, -0.009423318319022655, 0.0, 0.0, -0.20798243582248688, 0.17419300973415375, -0.8646968603134155, 0.0, -0.10964193195104599, -0.0024702083319425583, 0.0, 0.0, -0.08617616444826126, 0.7299888134002686, 0.2925151586532593, -0.06586447358131409, 0.0, -0.011467285454273224, 0.0, 0.0, 0.0, -0.004636965226382017, -0.004662809427827597, 0.0, 0.0, 0.0, -0.18372425436973572, 0.0, 0.0, -0.0035441003274172544, 0.0, 0.0, 0.0, -0.011223246343433857, -0.035264480859041214, 0.0, 0.0, -0.03679566830396652, 0.0, 0.0, 0.0, 0.2793804109096527, 0.0, -0.0012226976687088609, 0.0, -0.008328234776854515, 0.09453070908784866, -0.006799752824008465, 0.0, -1.231011986732483, 0.0, -0.1924569010734558, -0.06247015669941902, 0.0, -0.00867204088717699, -0.0020459285005927086, 0.0, -0.6530041694641113, 0.01134395319968462, 0.0, -0.0017327291425317526, -0.1250963807106018, 0.0475950688123703, 0.10865260660648346, 0.01604563556611538, 0.0, 0.8777040243148804, 0.0039560324512422085, 0.0, 0.4520309269428253, 0.0, 0.0, -0.1324075162410736, 0.0, 4.274779796600342, 0.0, 0.18235597014427185, -0.09539447724819183, 0.04947809875011444, 0.0, 0.0, -0.028948640450835228, 0.19256353378295898, 1.3058241605758667, 1.451821208000183, 0.0, -0.01436695922166109, 0.0, 0.0, 0.0, -0.012760547921061516, -0.022116899490356445, 0.0, -0.010847107507288456, 0.03609735146164894, -0.01324093621224165, 0.1248558759689331, -0.1553768813610077, 0.0, 0.0, 0.0, 0.0, -0.023836299777030945, -0.09003441780805588, 0.0, -0.0035367629025131464, -0.06958876550197601, 0.0, -0.5954630374908447, -4.202545642852783, -0.0594632513821125, -0.11964832246303558, 0.0, 0.0, 0.2890792489051819, 0.0, 0.0, 0.21515020728111267, 0.07606548815965652, -0.17933012545108795, 0.0, -0.010774189606308937, 0.7488148212432861, -0.027158109471201897, -0.033007219433784485, 0.0, 0.0, 0.204210102558136, -0.01196852046996355, -0.02106175199151039, -0.003602461889386177, 0.0, 0.0, -0.055011678487062454, 0.0, 0.10137657076120377, -0.005061364732682705, -0.07767355442047119, -0.26944243907928467, 0.0, -0.013766810297966003, -0.0381755530834198, -0.0695071592926979, 0.0, 0.0, -0.009096710942685604, -0.02944810688495636, 0.0, -0.013782689347863197, -0.013223670423030853, -0.004365760833024979, -1.1935590505599976, 0.06413494050502777, -0.08863312751054764, -0.0021285193506628275, 0.0, -0.1604667454957962, 0.0, -0.05615601688623428, 0.008053724654018879, 0.0, 0.0, -0.48801928758621216, -0.004159075673669577, 0.0, 0.0, 0.006492955610156059, -0.19222334027290344, -0.0019749233033508062, -0.02569221705198288, 0.0, 0.0, 0.0, -0.011300561018288136, 0.11084950715303421, 0.0, -0.09115361422300339, 0.07314533740282059, -0.0030105775222182274, 0.06824664026498795, 0.0, -0.4762501120567322, -0.004647062160074711, -0.0036019745748490095, 0.0, 0.0, 2.3388607501983643, -0.2126123011112213, -0.002052422147244215, 0.39922311902046204, 0.0, -0.06293387711048126, 0.020387614145874977, -0.06675328314304352, -0.02386798895895481, -0.009988529607653618, 0.0, 0.0, 0.0, 0.3041445314884186, -0.7041844129562378, -0.03358672186732292, -0.17973719537258148, 0.0, -0.018558885902166367, -0.06252536177635193, -0.007551990915089846, 0.16896149516105652, 4.030510425567627, -0.012751123867928982, -0.01043630763888359, -0.00794708076864481, -0.06049519404768944, 0.0, 0.0, -0.03338170424103737, 0.11783158779144287, -0.19500169157981873, 0.0, -0.006167462095618248, -0.023715948686003685, 0.0, 0.019905483350157738, -0.008478759787976742, 0.1346033215522766, -0.021493732929229736, 0.0, 0.0, 0.0, 0.0, -0.08463291823863983, 0.0, 0.44983386993408203, 0.0, -0.023132847622036934, 0.0, 0.0, 0.0, -0.25523582100868225, 0.0, 0.24400672316551208, 0.0031961018685251474, 0.0, -0.04048705846071243, 0.0, 0.14316438138484955, -0.00648350827395916, 0.3028993308544159, 0.6958669424057007, 0.17911270260810852, 0.1536022424697876, 0.0, 0.13194406032562256, 0.201759934425354, 0.0, 0.0, 0.0, -0.0031616261694580317, 0.5265072584152222, -0.004418948665261269, -0.015565469861030579, -0.021021250635385513, 1.1564674377441406, -0.09362970292568207, 1.129300594329834, 0.15532898902893066, -0.004151951055973768, 0.0, 0.0, 0.0, -0.015872716903686523, 0.0, -0.04847436770796776, 0.00040982846985571086, 0.0, 0.04525237902998924, 0.0, 0.0, 0.0, 0.0, 0.0, 0.4929385185241699, 0.06991497427225113, 0.0, -0.021529773250222206, 0.0, -0.3944123089313507, -0.13533812761306763, 0.1471613049507141, 0.032489217817783356, 0.46992242336273193, 0.0, 0.0, -0.0065644062124192715, -0.008174140006303787, -0.03791162371635437, -0.10471286624670029, -0.6161529421806335, 0.14219799637794495, 0.0, 0.0, 0.0, -0.014139925129711628, 0.0, 0.22052159905433655, 0.0, 0.0, -0.0211712084710598, -0.01475701667368412, 0.029443055391311646, 0.0, -0.022204646840691566, 0.0, 0.052735261619091034, 0.0, 0.0, 0.037116069346666336, 0.0, -0.0015097212744876742, 0.5411787033081055, 0.0, -0.03445761650800705, 0.12037435173988342, -0.45802000164985657, 0.0, 0.07762829959392548, -0.023924488574266434, 0.039819903671741486, 0.0, -0.007988733239471912, -0.0020252123940736055, -0.02142486535012722, -0.20524901151657104, -0.01716085709631443, -0.026441218331456184, 0.41076338291168213, -0.0027140555903315544, -0.01687593199312687, -0.03477156162261963, 0.07834237813949585, 0.0, 0.0, -0.03118135593831539, 0.0, -0.14231710135936737, 0.0, -0.0038098779041320086, 0.34335559606552124, -0.0657474622130394, 0.0, 0.0, 0.0, -0.012072884477674961, 0.0, 0.18092027306556702, 0.027934186160564423, 0.02192424051463604, 0.0, 0.5762581825256348, 0.0, 0.40320152044296265, -0.04523308575153351, 0.0, 0.18918663263320923, 0.0, 0.0, 0.0, 0.0, 0.0, 0.0, -0.0015679900534451008, 0.0034201776143163443, 0.0, 0.0, -0.004647062160074711, 0.0, -0.0013779675355181098, 0.0, -0.10688968747854233, -0.10309302061796188, 0.17144626379013062, 0.0, 0.029425445944070816, 0.2134416401386261, 0.3512296974658966, 0.0, -0.009104713797569275, 0.0, -0.020658446475863457, -0.01558748073875904, 0.0, 0.0, 0.0, -0.011477310210466385, 0.34260857105255127, 0.0, 0.04527194797992706, -0.009699627757072449, -0.3796788454055786, 0.0, -0.05970463901758194, -0.009562164545059204, -0.001643437659367919, -0.07144232839345932, 0.005176297388970852, 0.0, 1.6753785610198975, 0.0, -0.023449482396245003, 0.0, -0.04084690660238266, 0.0, -0.04430169612169266, 0.8443498015403748, 0.0, 0.35757243633270264, -0.09079715609550476, 0.0, 0.13260404765605927, 0.0, 0.0, 0.0, 0.06732689589262009, -0.014846625737845898, 0.0, 0.0, 0.0, -0.014149793423712254, 0.0, 0.5905946493148804, -0.05527172237634659, -0.0050503965467214584, 0.3554082214832306, 0.0, 0.0, 0.0, 0.0, 0.0, -0.00899125263094902, 0.0, -0.2331136018037796, -0.0016516071045771241, 0.0, 0.0, 0.0, 0.0, 0.029589761048555374, 0.04879922792315483, 0.20495253801345825, 0.0, 0.0, -0.07892509549856186, -0.00586001668125391, 0.0, -0.10613252967596054, 0.0, 0.0, 0.0, -0.0512293316423893, 0.0, -0.017667658627033234, -0.02797832526266575, 0.0, 0.0, -0.0216823723167181, 0.0, -0.013684965670108795, 0.0, 0.45188990235328674, 0.0, -0.012386239133775234, 0.0, -0.0017056112410500646, -0.04294848069548607, -0.0016516071045771241, 0.04100653529167175, 0.0, -0.07887391746044159, -0.006902237888425589, -0.00899125263094902, -0.04178203269839287, 0.0, -0.2732996642589569, -0.10627300292253494, -0.00597173860296607, -0.0941513255238533, -0.015050352551043034, 0.0, -0.06671751290559769, -0.15198619663715363, 0.0, 0.0, -0.004656977020204067, 0.14187152683734894, -0.1303035318851471, 0.0, -0.006985984742641449, 0.23717263340950012, 0.0, 0.3001001477241516, -0.29549992084503174, -0.1233837902545929, -0.11348266899585724, 0.0493813082575798, -0.03376930207014084, 0.0, 0.12086380273103714, 0.0, 0.2925151586532593, -0.011629781685769558, 0.031163858249783516, -0.051527105271816254, -0.014319204725325108, -0.006647339556366205, 0.0, 0.0, 0.0, -0.012386239133775234, 0.48963630199432373, 0.13946008682250977, -0.06342855095863342, 0.0, -0.058738965541124344, -0.016058743000030518, -0.03083987534046173, 0.0, 0.0, 0.0, 0.0, -0.02240518294274807, -0.18372425436973572, 0.22115416824817657, 0.15465199947357178, -0.0674438402056694, 0.048427075147628784, 0.16205377876758575, -0.27610331773757935, 0.0, 0.0, 0.3193994164466858, -0.00887785293161869, 1.02027428150177, 0.0, 0.0, -0.20942747592926025, -0.11896811425685883, -0.003356603207066655, -0.3178974390029907, -0.0002612826065160334, 0.0, 0.19619405269622803, 0.0, -0.24458107352256775, 0.0, -0.0007730704382993281, 0.0, 0.0, 0.0, 0.0, -0.007649808190762997, 0.0, -0.20353220403194427, -0.025331193581223488, 0.0, -0.2611352801322937, 0.0, -0.06425461173057556, 0.0, 0.0, -0.04561455547809601, 0.0, 0.03259371966123581, 0.4691968560218811, -0.21375907957553864, 0.0, -0.21514716744422913, 0.0, -0.02428881824016571, -0.06765821576118469, -0.03849078714847565, 0.0, 0.1924113780260086, -0.0028347282204777002, 0.0, -0.00543058430776, 0.0, -0.08189049363136292, -0.09762239456176758, 0.14391450583934784, 0.041278641670942307, -0.005159426014870405, -0.04979975149035454, 0.30778759717941284, 0.0, -0.02106175199151039, -0.02789439633488655, 0.0, 1.082794189453125, 0.0, 0.0, -0.7256875038146973, 0.03939433768391609, 0.14259693026542664, 0.0, -0.08838091045618057, -0.005046736914664507, -0.08163276314735413, -0.4508363902568817, -0.022288868203759193, -0.11125126481056213, -0.07271001487970352, -0.0002816014166455716, -0.02599271386861801, 0.0, 0.025814056396484375, -0.0084858862683177, -0.03593860939145088, -0.025331193581223488, 0.3766731917858124, 0.02306334301829338, -0.025586992502212524, 0.0, -0.0423385314643383, -0.6463135480880737, 0.006711821537464857, 0.07588193565607071, 0.0, 0.16614334285259247, -0.03156428039073944, -0.10729283094406128, 0.0, 0.0, 0.0, -0.021122347563505173, -0.07737971097230911, 0.0, -0.016113873571157455, 0.3489394783973694, -0.024754242971539497, 0.014389023184776306, 0.0, 0.08025790750980377, 0.26357796788215637, 0.0, 0.0, -0.2875395715236664, 0.15170429646968842, 0.07649756222963333, 0.00460153678432107, 0.0, -0.14516222476959229, 0.0, 0.2723284661769867, 0.0, -0.015656862407922745, -0.0845499038696289, 0.026295151561498642, 0.2134416401386261, -0.3902880847454071, 0.0, -0.017200661823153496, 0.5028249025344849, 0.0, 0.0, -0.16492611169815063, -0.004044079687446356, -0.19729094207286835, -0.008156710304319859, 1.5207576751708984, 0.0, 0.2432565689086914, 0.0, 0.04088461771607399, 0.24844790995121002, 0.0, 0.0, -0.1261667013168335, 0.0, 0.0, -0.05847981199622154, -0.0276409313082695, 0.0, -0.034578755497932434, 0.0612575002014637, 0.012286046519875526, -0.35308772325515747, 0.1320585459470749, -0.03275861591100693, -0.002968188840895891, -0.06067422777414322, 0.0, 0.0, -0.007073525805026293, 0.04868928715586662, 0.0, 0.05249973013997078, 0.41188180446624756, 0.0, 0.38906535506248474, 0.0, 0.0, -1.0865235328674316, 0.0, 0.4726732671260834, -0.0027747065760195255, 0.04632978513836861, 0.4691180884838104, 0.0, 0.0, -0.0027794393245130777, 0.0, 0.0, 0.09496795386075974, -0.007315178867429495, 0.28578057885169983, 0.0, -0.030895810574293137, 0.0, 0.0, -0.01010054536163807, -0.11640330404043198, -0.05040108039975166, 0.0, -0.006534043699502945, 0.0012893350794911385, 1.2458775043487549, -1.1091792583465576, 0.0, 0.14881892502307892, -0.07835547626018524, 0.5179927945137024, -0.008357608690857887, -0.041929811239242554, -0.01787145808339119, -0.03683983534574509, 0.0, -0.03491324558854103, -0.00019404217891860753, 0.0, 0.1508937031030655, 0.0, -0.0006125352228991687, 0.0, 0.12585915625095367, 0.30939537286758423, 0.10575104504823685, 0.08282427489757538, 0.07153066992759705, 0.28886958956718445, 0.15922416746616364, 0.1744697391986847, 0.0, -0.1388954222202301, 0.047929953783750534, 0.0, 0.0, -0.0010392965050414205, 0.0, 0.0, 1.4286271333694458, 0.0, 0.14190910756587982, -0.006700404454022646, 0.08470344543457031, 0.0, 0.0, 0.0, -0.01092378981411457, -0.03283313661813736, 0.0, 0.03588155657052994, -0.00491014588624239, -0.011899925768375397, 0.015256593003869057, -0.04516761377453804, 0.2587851881980896, -0.007988733239471912, 0.0, 0.0, -0.005191519390791655, 1.1619340181350708, 0.0, 0.0, 0.2611371874809265, -0.13805752992630005, 0.0, 0.0, -0.010472215712070465, -0.321490615606308, -0.0005787440459243953, 0.0, 0.0, -0.020550981163978577, -0.009060760028660297, -0.0656636506319046, 0.0, 0.0, -0.06279940158128738, 0.0, 0.0, -0.0065644062124192715, -0.26092320680618286, 0.0, -0.01817055605351925, -0.01515233051031828, -0.07863225042819977, -0.08247864991426468, 0.03678443282842636, -0.00750320591032505, -0.1491558849811554, -0.44020602107048035, -0.005389574449509382, 0.05743866041302681, -0.006184699479490519, 0.0, 0.0, -0.07009357959032059, 0.0, -0.0159534253180027, -0.5974726676940918, 0.0, -0.04131072387099266, 0.07548217475414276, -0.0064603970386087894, 0.14219799637794495, -0.13357050716876984, 0.0, 0.13393181562423706, 0.0, 0.0, 0.0, -0.05761733278632164, 0.0, 0.0, 0.0, 0.0, 0.09994913637638092, -0.17055043578147888, -0.0706946849822998, -0.05102600157260895, -0.07328775525093079, -0.03958470746874809, 0.0, 0.0, 0.0, 0.0, -0.05945832282304764, -0.025838566944003105, -0.0007200069958344102, 0.0, -0.018558885902166367, 0.07255180925130844, 0.3932274281978607, 0.0, -0.5812564492225647, -0.030123796314001083, -0.05249057337641716, -0.03113745152950287, -0.06116444990038872, 0.0, -0.02470593899488449, 0.0, 0.005176297388970852, 0.0, 0.5608023405075073, 0.18302232027053833, -0.049010615795850754, 0.0, 0.0, 0.07001449167728424, 0.0, 0.015513984486460686, 0.0, -0.16477620601654053, -0.07350852340459824, 0.0, 0.23767811059951782, -0.002398943994194269, -0.09195117652416229, 0.0, -0.03855178505182266, 0.0, -0.02851324900984764, 0.03495413437485695, -0.01933238096535206, 0.0, 0.0, -0.0060484749265015125, 0.1905430108308792, 0.0, 0.31836509704589844, 0.0, -0.1194630041718483, -0.021872511133551598, 0.11651422083377838, 0.0, 0.0, -0.1096995547413826, -0.006702903192490339, -0.011342832818627357, 0.0, 0.0, -0.004679075907915831, 0.23502026498317719, -0.01715477742254734, 0.0, -0.4499078691005707, 0.0, 0.01773824356496334, 0.12993450462818146, -0.19813142716884613, 0.0, 0.22947518527507782, 0.025660816580057144, -0.024621374905109406, -1.09735906124115, -0.017456622794270515, 0.0, -0.025402214378118515, -0.032167594879865646, 0.0, 0.3789921998977661, 0.0, 0.0, -0.005843059159815311, 0.034771401435136795, 0.09372912347316742, 0.018947716802358627, 0.07306697219610214, 0.8660300374031067, 0.7361446619033813, -0.03869457542896271, -0.03776857256889343, 0.0, 0.0, -0.015872716903686523, -0.018123557791113853, -0.0072646066546440125, -0.426829993724823, 0.19053688645362854, 0.0, -0.004488023929297924, -0.04313558340072632, 0.8917220234870911, 0.10980221629142761, 0.14450229704380035, 0.0, 0.0, -0.3612602949142456, 0.24319909512996674, 0.0, 0.36910539865493774, 0.0, 0.06737536936998367, 0.1266794055700302, -0.08027633279561996, 0.0, -0.05554100498557091, 0.07296907901763916, 0.17546601593494415, 0.0, 0.10483664274215698, 0.0, 0.0, -0.01832803338766098, -0.06985010206699371, 0.0, 0.0, 0.0, -0.0038098779041320086, -0.005824611522257328, 0.0, 1.163906455039978, 0.0, 0.0, 0.0, 0.0, -0.10588552802801132, 0.0, 0.19798441231250763, 0.0, 0.0, 0.0, 0.0, 0.12190387398004532, 0.22042059898376465, -0.02693546563386917, 0.0, -0.01948118396103382, 0.06468391418457031, 0.0, 0.0, 0.015136444009840488, 0.0, -0.0028575086034834385, 0.0, -0.005159426014870405, 0.0, 0.0, 0.0, -0.005946296267211437, -0.0026629366911947727, -0.0014610706130042672, -0.9750216007232666, -0.007580761797726154, -0.05925887078046799, -0.09143581986427307, 0.0, -0.042383238673210144, -0.037379227578639984, -0.01294394489377737, -0.7202035188674927, 0.0, 0.0, -0.011686118319630623, 0.004347947426140308, 0.06075719743967056, 0.0, -0.18007390201091766, 0.0038446506951004267, 0.6016372442245483, 0.0, 0.009132646955549717, -0.35482147336006165, 0.12484630942344666, 0.0, 0.19321633875370026, -0.06737542152404785, 0.0, -0.014208375476300716, -0.01447976566851139, 0.0, -0.09258460998535156, -0.006983042694628239, -0.020283909514546394, 0.18491612374782562, 0.0, -0.033399615436792374, -1.1682922840118408, 0.039741989225149155, -0.007601195015013218, -0.00461612269282341, -0.06805961579084396, 0.0, -0.6537774205207825, -0.002303545596078038, 0.0, -0.002479932038113475, 0.09797585010528564, 0.06590967625379562, 0.0, 0.0, -0.01684718392789364, 0.0, 0.10639983415603638, -0.008444041945040226, 0.0, -0.06035168841481209, -0.16037499904632568, 0.03626062721014023, 0.0, 0.0, 0.0, -0.8881382942199707, 0.4680403172969818, 0.0, 0.0, 0.0, -0.006677619647234678, 0.0, -0.05074687674641609, -0.033022720366716385, -0.0715302973985672, 0.06408065557479858, -0.011291569098830223, -0.01613050512969494, 0.0, -0.03973349928855896, 0.42068159580230713, 0.0, -0.1114400327205658, 0.0, -0.10327202081680298, 0.03996487334370613, 0.0, 0.0, 0.0, 0.09650076925754547, -0.1818651556968689, 0.5679321885108948, 0.0, 0.0, 0.0, -0.05482397973537445, 0.0, 0.0, -0.029437879100441933, 0.0, -0.008594725281000137, 0.0, 0.0, 0.0, 0.36998534202575684, 